<?xml version="1.0"?>
<opencv_storage>
<cascade>
  <stageType>BOOST</stageType>
  <featureType>HAAR</featureType>
  <height>40</height>
  <width>50</width>
  <stageParams>
    <boostType>GAB</boostType>
    <minHitRate>9.9500000476837158e-01</minHitRate>
    <maxFalseAlarm>5.0000000000000000e-01</maxFalseAlarm>
    <weightTrimRate>9.4999999999999996e-01</weightTrimRate>
    <maxDepth>1</maxDepth>
    <maxWeakCount>100</maxWeakCount></stageParams>
  <featureParams>
    <maxCatCount>0</maxCatCount>
    <featSize>1</featSize>
    <mode>BASIC</mode></featureParams>
  <stageNum>25</stageNum>
  <stages>
    <!-- stage 0 -->
    <_>
      <maxWeakCount>3</maxWeakCount>
      <stageThreshold>-9.3828612565994263e-01</stageThreshold>
      <weakClassifiers>
        <_>
          <internalNodes>
            0 -1 66 1.6675818711519241e-02</internalNodes>
          <leafValues>
            -9.4222223758697510e-01 6.9736844301223755e-01</leafValues></_>
        <_>
          <internalNodes>
            0 -1 166 1.6918335109949112e-02</internalNodes>
          <leafValues>
            -7.5820577144622803e-01 8.3190810680389404e-01</leafValues></_>
        <_>
          <internalNodes>
            0 -1 16 9.6499100327491760e-03</internalNodes>
          <leafValues>
            -6.0112631320953369e-01 7.6214188337326050e-01</leafValues></_></weakClassifiers></_>
    <!-- stage 1 -->
    <_>
      <maxWeakCount>5</maxWeakCount>
      <stageThreshold>-1.3243806362152100e+00</stageThreshold>
      <weakClassifiers>
        <_>
          <internalNodes>
            0 -1 191 1.8144365400075912e-02</internalNodes>
          <leafValues>
            -8.3833718299865723e-01 5.4334038496017456e-01</leafValues></_>
        <_>
          <internalNodes>
            0 -1 116 4.2754884809255600e-02</internalNodes>
          <leafValues>
            -5.2131927013397217e-01 6.7318034172058105e-01</leafValues></_>
        <_>
          <internalNodes>
            0 -1 58 -3.3858947455883026e-02</internalNodes>
          <leafValues>
            3.7676641345024109e-01 -8.6817157268524170e-01</leafValues></_>
        <_>
          <internalNodes>
            0 -1 168 4.5967772603034973e-03</internalNodes>
          <leafValues>
            -6.1362379789352417e-01 5.0817769765853882e-01</leafValues></_>
        <_>
          <internalNodes>
            0 -1 135 -1.5708571299910545e-04</internalNodes>
          <leafValues>
            -9.4896519184112549e-01 3.2257160544395447e-01</leafValues></_></weakClassifiers></_>
    <!-- stage 2 -->
    <_>
      <maxWeakCount>5</maxWeakCount>
      <stageThreshold>-1.0006424188613892e+00</stageThreshold>
      <weakClassifiers>
        <_>
          <internalNodes>
            0 -1 167 1.5945356339216232e-02</internalNodes>
          <leafValues>
            -7.0833331346511841e-01 5.4929578304290771e-01</leafValues></_>
        <_>
          <internalNodes>
            0 -1 105 -2.5729028508067131e-02</internalNodes>
          <leafValues>
            5.2389353513717651e-01 -6.3502985239028931e-01</leafValues></_>
        <_>
          <internalNodes>
            0 -1 198 1.3552226591855288e-03</internalNodes>
          <leafValues>
            -5.1042044162750244e-01 6.2580120563507080e-01</leafValues></_>
        <_>
          <internalNodes>
            0 -1 56 -2.7341283857822418e-03</internalNodes>
          <leafValues>
            5.9962773323059082e-01 -4.6450319886207581e-01</leafValues></_>
        <_>
          <internalNodes>
            0 -1 136 3.9094102248782292e-05</internalNodes>
          <leafValues>
            4.1526633501052856e-01 -8.8270813226699829e-01</leafValues></_></weakClassifiers></_>
    <!-- stage 3 -->
    <_>
      <maxWeakCount>6</maxWeakCount>
      <stageThreshold>-1.2104694843292236e+00</stageThreshold>
      <weakClassifiers>
        <_>
          <internalNodes>
            0 -1 10 1.0636872798204422e-01</internalNodes>
          <leafValues>
            -7.4423480033874512e-01 5.8041960000991821e-01</leafValues></_>
        <_>
          <internalNodes>
            0 -1 33 -9.1544747352600098e-02</internalNodes>
          <leafValues>
            4.1272160410881042e-01 -7.1431356668472290e-01</leafValues></_>
        <_>
          <internalNodes>
            0 -1 160 1.9963424652814865e-02</internalNodes>
          <leafValues>
            -6.5806955099105835e-01 4.7438514232635498e-01</leafValues></_>
        <_>
          <internalNodes>
            0 -1 11 3.1743138097226620e-03</internalNodes>
          <leafValues>
            -4.4436705112457275e-01 6.4477604627609253e-01</leafValues></_>
        <_>
          <internalNodes>
            0 -1 64 -4.1501680389046669e-03</internalNodes>
          <leafValues>
            5.7504367828369141e-01 -5.1669746637344360e-01</leafValues></_>
        <_>
          <internalNodes>
            0 -1 91 2.7287224307656288e-02</internalNodes>
          <leafValues>
            -3.5156336426734924e-01 7.8130096197128296e-01</leafValues></_></weakClassifiers></_>
    <!-- stage 4 -->
    <_>
      <maxWeakCount>7</maxWeakCount>
      <stageThreshold>-1.0049283504486084e+00</stageThreshold>
      <weakClassifiers>
        <_>
          <internalNodes>
            0 -1 45 -1.3622242212295532e-01</internalNodes>
          <leafValues>
            5.3694581985473633e-01 -6.4800000190734863e-01</leafValues></_>
        <_>
          <internalNodes>
            0 -1 113 -2.5127965956926346e-02</internalNodes>
          <leafValues>
            3.8939586281776428e-01 -7.1742153167724609e-01</leafValues></_>
        <_>
          <internalNodes>
            0 -1 127 2.3137371987104416e-02</internalNodes>
          <leafValues>
            -5.2415990829467773e-01 6.1216861009597778e-01</leafValues></_>
        <_>
          <internalNodes>
            0 -1 89 4.5796800404787064e-03</internalNodes>
          <leafValues>
            -5.9217274188995361e-01 4.8048061132431030e-01</leafValues></_>
        <_>
          <internalNodes>
            0 -1 22 7.3347324505448341e-03</internalNodes>
          <leafValues>
            -5.0159871578216553e-01 5.5389177799224854e-01</leafValues></_>
        <_>
          <internalNodes>
            0 -1 157 -1.2046194635331631e-02</internalNodes>
          <leafValues>
            4.6071103215217590e-01 -5.5643415451049805e-01</leafValues></_>
        <_>
          <internalNodes>
            0 -1 0 -9.4967090990394354e-04</internalNodes>
          <leafValues>
            4.4506013393402100e-01 -5.4922044277191162e-01</leafValues></_></weakClassifiers></_>
    <!-- stage 5 -->
    <_>
      <maxWeakCount>6</maxWeakCount>
      <stageThreshold>-1.0585610866546631e+00</stageThreshold>
      <weakClassifiers>
        <_>
          <internalNodes>
            0 -1 200 1.8371564801782370e-03</internalNodes>
          <leafValues>
            -5.6036037206649780e-01 5.8404558897018433e-01</leafValues></_>
        <_>
          <internalNodes>
            0 -1 17 7.8361108899116516e-03</internalNodes>
          <leafValues>
            -5.0392907857894897e-01 5.1338148117065430e-01</leafValues></_>
        <_>
          <internalNodes>
            0 -1 165 2.3420434445142746e-03</internalNodes>
          <leafValues>
            -4.8714512586593628e-01 5.3039139509201050e-01</leafValues></_>
        <_>
          <internalNodes>
            0 -1 109 -1.2558295566122979e-04</internalNodes>
          <leafValues>
            -9.3720179796218872e-01 2.0547978579998016e-01</leafValues></_>
        <_>
          <internalNodes>
            0 -1 179 3.2560579478740692e-02</internalNodes>
          <leafValues>
            -3.5904684662818909e-01 6.5856200456619263e-01</leafValues></_>
        <_>
          <internalNodes>
            0 -1 29 2.8657363727688789e-03</internalNodes>
          <leafValues>
            -3.2288411259651184e-01 6.4644062519073486e-01</leafValues></_></weakClassifiers></_>
    <!-- stage 6 -->
    <_>
      <maxWeakCount>4</maxWeakCount>
      <stageThreshold>-6.5671944618225098e-01</stageThreshold>
      <weakClassifiers>
        <_>
          <internalNodes>
            0 -1 34 -3.3839499950408936e-01</internalNodes>
          <leafValues>
            6.6559487581253052e-01 -5.2605044841766357e-01</leafValues></_>
        <_>
          <internalNodes>
            0 -1 83 -4.3884806473215576e-06</internalNodes>
          <leafValues>
            4.4807347655296326e-01 -5.5192780494689941e-01</leafValues></_>
        <_>
          <internalNodes>
            0 -1 126 -2.3141000419855118e-03</internalNodes>
          <leafValues>
            -9.5906454324722290e-01 2.6480633020401001e-01</leafValues></_>
        <_>
          <internalNodes>
            0 -1 97 -1.7758628819137812e-03</internalNodes>
          <leafValues>
            -8.4354883432388306e-01 2.5947365164756775e-01</leafValues></_></weakClassifiers></_>
    <!-- stage 7 -->
    <_>
      <maxWeakCount>5</maxWeakCount>
      <stageThreshold>-9.6068960428237915e-01</stageThreshold>
      <weakClassifiers>
        <_>
          <internalNodes>
            0 -1 181 7.2931401431560516e-02</internalNodes>
          <leafValues>
            -6.1396306753158569e-01 4.6062052249908447e-01</leafValues></_>
        <_>
          <internalNodes>
            0 -1 52 -4.1814980795606971e-04</internalNodes>
          <leafValues>
            -7.7872860431671143e-01 3.1794089078903198e-01</leafValues></_>
        <_>
          <internalNodes>
            0 -1 182 -4.2576652958814520e-06</internalNodes>
          <leafValues>
            3.5463327169418335e-01 -6.7181032896041870e-01</leafValues></_>
        <_>
          <internalNodes>
            0 -1 103 -2.5622156681492925e-04</internalNodes>
          <leafValues>
            5.2438044548034668e-01 -4.9951404333114624e-01</leafValues></_>
        <_>
          <internalNodes>
            0 -1 194 4.4466898543760180e-04</internalNodes>
          <leafValues>
            -4.4701173901557922e-01 6.2655091285705566e-01</leafValues></_></weakClassifiers></_>
    <!-- stage 8 -->
    <_>
      <maxWeakCount>7</maxWeakCount>
      <stageThreshold>-9.1101461648941040e-01</stageThreshold>
      <weakClassifiers>
        <_>
          <internalNodes>
            0 -1 177 1.2860817834734917e-02</internalNodes>
          <leafValues>
            -6.1085975170135498e-01 3.5344827175140381e-01</leafValues></_>
        <_>
          <internalNodes>
            0 -1 7 9.0116858482360840e-03</internalNodes>
          <leafValues>
            -4.1518393158912659e-01 5.7650256156921387e-01</leafValues></_>
        <_>
          <internalNodes>
            0 -1 57 -1.3267792761325836e-02</internalNodes>
          <leafValues>
            5.3166294097900391e-01 -4.4724291563034058e-01</leafValues></_>
        <_>
          <internalNodes>
            0 -1 153 3.2415011082775891e-04</internalNodes>
          <leafValues>
            2.8540804982185364e-01 -9.0201675891876221e-01</leafValues></_>
        <_>
          <internalNodes>
            0 -1 12 1.0792937828227878e-03</internalNodes>
          <leafValues>
            -4.0516838431358337e-01 5.6410294771194458e-01</leafValues></_>
        <_>
          <internalNodes>
            0 -1 190 5.6120875524356961e-04</internalNodes>
          <leafValues>
            -4.3324854969978333e-01 5.3195381164550781e-01</leafValues></_>
        <_>
          <internalNodes>
            0 -1 98 1.2081966269761324e-03</internalNodes>
          <leafValues>
            3.4581676125526428e-01 -7.8497910499572754e-01</leafValues></_></weakClassifiers></_>
    <!-- stage 9 -->
    <_>
      <maxWeakCount>7</maxWeakCount>
      <stageThreshold>-1.0150089263916016e+00</stageThreshold>
      <weakClassifiers>
        <_>
          <internalNodes>
            0 -1 71 3.0466709285974503e-02</internalNodes>
          <leafValues>
            -4.9454545974731445e-01 4.6629214286804199e-01</leafValues></_>
        <_>
          <internalNodes>
            0 -1 30 1.7676225304603577e-01</internalNodes>
          <leafValues>
            -5.5996274948120117e-01 4.1278031468391418e-01</leafValues></_>
        <_>
          <internalNodes>
            0 -1 186 -6.3434168696403503e-03</internalNodes>
          <leafValues>
            4.5307260751724243e-01 -4.0406170487403870e-01</leafValues></_>
        <_>
          <internalNodes>
            0 -1 48 -4.6136922901496291e-04</internalNodes>
          <leafValues>
            4.2782226204872131e-01 -4.1832581162452698e-01</leafValues></_>
        <_>
          <internalNodes>
            0 -1 193 -1.9086722750216722e-03</internalNodes>
          <leafValues>
            4.8896268010139465e-01 -3.6417818069458008e-01</leafValues></_>
        <_>
          <internalNodes>
            0 -1 137 5.7653413387015462e-04</internalNodes>
          <leafValues>
            2.1248435974121094e-01 -8.1476461887359619e-01</leafValues></_>
        <_>
          <internalNodes>
            0 -1 149 -1.1999318376183510e-03</internalNodes>
          <leafValues>
            -9.7954314947128296e-01 1.6743257641792297e-01</leafValues></_></weakClassifiers></_>
    <!-- stage 10 -->
    <_>
      <maxWeakCount>6</maxWeakCount>
      <stageThreshold>-7.9253572225570679e-01</stageThreshold>
      <weakClassifiers>
        <_>
          <internalNodes>
            0 -1 162 -2.1159201860427856e-02</internalNodes>
          <leafValues>
            5.2265858650207520e-01 -4.8521739244461060e-01</leafValues></_>
        <_>
          <internalNodes>
            0 -1 202 5.5207312107086182e-04</internalNodes>
          <leafValues>
            -3.9625942707061768e-01 5.0872772932052612e-01</leafValues></_>
        <_>
          <internalNodes>
            0 -1 32 -6.6607627086341381e-03</internalNodes>
          <leafValues>
            6.4404183626174927e-01 -2.9805883765220642e-01</leafValues></_>
        <_>
          <internalNodes>
            0 -1 152 5.9344526380300522e-04</internalNodes>
          <leafValues>
            2.5981080532073975e-01 -7.9128491878509521e-01</leafValues></_>
        <_>
          <internalNodes>
            0 -1 173 1.7066204454749823e-03</internalNodes>
          <leafValues>
            -2.3618946969509125e-01 7.7418893575668335e-01</leafValues></_>
        <_>
          <internalNodes>
            0 -1 99 -3.2930583693087101e-03</internalNodes>
          <leafValues>
            4.5481219887733459e-01 -4.9838888645172119e-01</leafValues></_></weakClassifiers></_>
    <!-- stage 11 -->
    <_>
      <maxWeakCount>8</maxWeakCount>
      <stageThreshold>-1.4342321157455444e+00</stageThreshold>
      <weakClassifiers>
        <_>
          <internalNodes>
            0 -1 121 6.7359399981796741e-03</internalNodes>
          <leafValues>
            -4.6308726072311401e-01 5.4838711023330688e-01</leafValues></_>
        <_>
          <internalNodes>
            0 -1 111 -4.4885702431201935e-02</internalNodes>
          <leafValues>
            4.7190192341804504e-01 -4.5929449796676636e-01</leafValues></_>
        <_>
          <internalNodes>
            0 -1 72 -2.6277780532836914e-02</internalNodes>
          <leafValues>
            3.0712676048278809e-01 -6.6075861454010010e-01</leafValues></_>
        <_>
          <internalNodes>
            0 -1 201 4.9785198643803596e-04</internalNodes>
          <leafValues>
            -4.1490218043327332e-01 4.3400475382804871e-01</leafValues></_>
        <_>
          <internalNodes>
            0 -1 120 2.9647050541825593e-04</internalNodes>
          <leafValues>
            1.7220927774906158e-01 -8.9361453056335449e-01</leafValues></_>
        <_>
          <internalNodes>
            0 -1 2 2.5595389306545258e-02</internalNodes>
          <leafValues>
            -4.5041653513908386e-01 4.2909163236618042e-01</leafValues></_>
        <_>
          <internalNodes>
            0 -1 55 -4.0853526443243027e-03</internalNodes>
          <leafValues>
            5.2564513683319092e-01 -3.3217585086822510e-01</leafValues></_>
        <_>
          <internalNodes>
            0 -1 84 1.3558897189795971e-03</internalNodes>
          <leafValues>
            2.0630815625190735e-01 -8.3390772342681885e-01</leafValues></_></weakClassifiers></_>
    <!-- stage 12 -->
    <_>
      <maxWeakCount>10</maxWeakCount>
      <stageThreshold>-1.0764493942260742e+00</stageThreshold>
      <weakClassifiers>
        <_>
          <internalNodes>
            0 -1 174 3.2564792782068253e-02</internalNodes>
          <leafValues>
            -4.5392492413520813e-01 5.0000000000000000e-01</leafValues></_>
        <_>
          <internalNodes>
            0 -1 139 -3.2925273990258574e-04</internalNodes>
          <leafValues>
            3.5678127408027649e-01 -4.8070779442787170e-01</leafValues></_>
        <_>
          <internalNodes>
            0 -1 15 -6.5273251384496689e-03</internalNodes>
          <leafValues>
            6.5068876743316650e-01 -2.7622139453887939e-01</leafValues></_>
        <_>
          <internalNodes>
            0 -1 51 -4.3160225686733611e-06</internalNodes>
          <leafValues>
            3.6383309960365295e-01 -5.1359820365905762e-01</leafValues></_>
        <_>
          <internalNodes>
            0 -1 70 -2.8113638982176781e-03</internalNodes>
          <leafValues>
            4.9333128333091736e-01 -4.4825962185859680e-01</leafValues></_>
        <_>
          <internalNodes>
            0 -1 73 -6.7480059806257486e-04</internalNodes>
          <leafValues>
            -7.8663629293441772e-01 2.5786873698234558e-01</leafValues></_>
        <_>
          <internalNodes>
            0 -1 114 1.0753899114206433e-03</internalNodes>
          <leafValues>
            -3.2749378681182861e-01 4.9213376641273499e-01</leafValues></_>
        <_>
          <internalNodes>
            0 -1 138 -2.5316933169960976e-03</internalNodes>
          <leafValues>
            7.3840945959091187e-01 -2.3841758072376251e-01</leafValues></_>
        <_>
          <internalNodes>
            0 -1 94 -2.0074396161362529e-04</internalNodes>
          <leafValues>
            -9.4921898841857910e-01 2.0516765117645264e-01</leafValues></_>
        <_>
          <internalNodes>
            0 -1 189 5.5875559337437153e-04</internalNodes>
          <leafValues>
            -3.3706417679786682e-01 5.8683741092681885e-01</leafValues></_></weakClassifiers></_>
    <!-- stage 13 -->
    <_>
      <maxWeakCount>10</maxWeakCount>
      <stageThreshold>-1.3477855920791626e+00</stageThreshold>
      <weakClassifiers>
        <_>
          <internalNodes>
            0 -1 39 -1.0384522378444672e-01</internalNodes>
          <leafValues>
            2.4615384638309479e-01 -6.0621762275695801e-01</leafValues></_>
        <_>
          <internalNodes>
            0 -1 104 6.0708969831466675e-02</internalNodes>
          <leafValues>
            -4.4985395669937134e-01 3.7579146027565002e-01</leafValues></_>
        <_>
          <internalNodes>
            0 -1 199 -1.6893394058570266e-04</internalNodes>
          <leafValues>
            3.5331836342811584e-01 -4.9061220884323120e-01</leafValues></_>
        <_>
          <internalNodes>
            0 -1 159 -5.5862143635749817e-03</internalNodes>
          <leafValues>
            4.1985863447189331e-01 -4.2916250228881836e-01</leafValues></_>
        <_>
          <internalNodes>
            0 -1 53 -8.0289822071790695e-03</internalNodes>
          <leafValues>
            7.9993045330047607e-01 -2.3305647075176239e-01</leafValues></_>
        <_>
          <internalNodes>
            0 -1 36 1.2471871450543404e-02</internalNodes>
          <leafValues>
            -4.3731907010078430e-01 4.0217986702919006e-01</leafValues></_>
        <_>
          <internalNodes>
            0 -1 90 -1.4315408188849688e-03</internalNodes>
          <leafValues>
            -9.1086095571517944e-01 2.1002791821956635e-01</leafValues></_>
        <_>
          <internalNodes>
            0 -1 68 1.1448238510638475e-03</internalNodes>
          <leafValues>
            -4.4272077083587646e-01 3.5767555236816406e-01</leafValues></_>
        <_>
          <internalNodes>
            0 -1 197 -5.1739730406552553e-04</internalNodes>
          <leafValues>
            5.1949709653854370e-01 -3.7051048874855042e-01</leafValues></_>
        <_>
          <internalNodes>
            0 -1 132 -1.5138933667913079e-04</internalNodes>
          <leafValues>
            -8.8598597049713135e-01 2.0976912975311279e-01</leafValues></_></weakClassifiers></_>
    <!-- stage 14 -->
    <_>
      <maxWeakCount>10</maxWeakCount>
      <stageThreshold>-1.1007077693939209e+00</stageThreshold>
      <weakClassifiers>
        <_>
          <internalNodes>
            0 -1 170 1.4367199502885342e-02</internalNodes>
          <leafValues>
            -5.3744494915008545e-01 3.0530974268913269e-01</leafValues></_>
        <_>
          <internalNodes>
            0 -1 142 -1.0512274689972401e-02</internalNodes>
          <leafValues>
            3.9779773354530334e-01 -4.1401097178459167e-01</leafValues></_>
        <_>
          <internalNodes>
            0 -1 92 -3.0343735488713719e-05</internalNodes>
          <leafValues>
            3.4027791023254395e-01 -4.2603781819343567e-01</leafValues></_>
        <_>
          <internalNodes>
            0 -1 40 -3.3097785711288452e-01</internalNodes>
          <leafValues>
            5.5807083845138550e-01 -3.3201476931571960e-01</leafValues></_>
        <_>
          <internalNodes>
            0 -1 19 2.0274000242352486e-02</internalNodes>
          <leafValues>
            -3.7588843703269958e-01 4.4890782237052917e-01</leafValues></_>
        <_>
          <internalNodes>
            0 -1 106 -8.8846063590608537e-06</internalNodes>
          <leafValues>
            2.6101341843605042e-01 -5.7269948720932007e-01</leafValues></_>
        <_>
          <internalNodes>
            0 -1 123 -1.6349744691979140e-04</internalNodes>
          <leafValues>
            -7.3141741752624512e-01 2.2263529896736145e-01</leafValues></_>
        <_>
          <internalNodes>
            0 -1 122 2.8119138441979885e-03</internalNodes>
          <leafValues>
            -2.3859745264053345e-01 7.7739381790161133e-01</leafValues></_>
        <_>
          <internalNodes>
            0 -1 131 -4.0919758612290025e-04</internalNodes>
          <leafValues>
            -7.5554537773132324e-01 2.4138264358043671e-01</leafValues></_>
        <_>
          <internalNodes>
            0 -1 150 -9.5443893224000931e-04</internalNodes>
          <leafValues>
            5.0837671756744385e-01 -3.1355342268943787e-01</leafValues></_></weakClassifiers></_>
    <!-- stage 15 -->
    <_>
      <maxWeakCount>10</maxWeakCount>
      <stageThreshold>-9.7347563505172729e-01</stageThreshold>
      <weakClassifiers>
        <_>
          <internalNodes>
            0 -1 59 -7.1724876761436462e-04</internalNodes>
          <leafValues>
            3.9425587654113770e-01 -4.9139580130577087e-01</leafValues></_>
        <_>
          <internalNodes>
            0 -1 108 4.8423491418361664e-02</internalNodes>
          <leafValues>
            -4.3731710314750671e-01 3.9310848712921143e-01</leafValues></_>
        <_>
          <internalNodes>
            0 -1 147 1.9824970513582230e-04</internalNodes>
          <leafValues>
            -5.1765239238739014e-01 2.8950482606887817e-01</leafValues></_>
        <_>
          <internalNodes>
            0 -1 185 -1.2705663219094276e-02</internalNodes>
          <leafValues>
            2.7066200971603394e-01 -6.1857825517654419e-01</leafValues></_>
        <_>
          <internalNodes>
            0 -1 96 1.4042131078895181e-04</internalNodes>
          <leafValues>
            1.3542377948760986e-01 -8.4432506561279297e-01</leafValues></_>
        <_>
          <internalNodes>
            0 -1 6 6.0065963771194220e-04</internalNodes>
          <leafValues>
            -2.4065005779266357e-01 7.1958208084106445e-01</leafValues></_>
        <_>
          <internalNodes>
            0 -1 1 2.3834340274333954e-02</internalNodes>
          <leafValues>
            -3.7292024493217468e-01 4.0466824173927307e-01</leafValues></_>
        <_>
          <internalNodes>
            0 -1 9 -9.2476292047649622e-04</internalNodes>
          <leafValues>
            4.2122557759284973e-01 -3.7246456742286682e-01</leafValues></_>
        <_>
          <internalNodes>
            0 -1 155 -4.7487005940638483e-04</internalNodes>
          <leafValues>
            -7.1117907762527466e-01 2.2646155953407288e-01</leafValues></_>
        <_>
          <internalNodes>
            0 -1 151 -2.8462510090321302e-04</internalNodes>
          <leafValues>
            -8.0592978000640869e-01 1.7927205562591553e-01</leafValues></_></weakClassifiers></_>
    <!-- stage 16 -->
    <_>
      <maxWeakCount>10</maxWeakCount>
      <stageThreshold>-1.0030945539474487e+00</stageThreshold>
      <weakClassifiers>
        <_>
          <internalNodes>
            0 -1 163 9.1518292902037501e-04</internalNodes>
          <leafValues>
            -5.2017939090728760e-01 2.7391305565834045e-01</leafValues></_>
        <_>
          <internalNodes>
            0 -1 87 1.3692191569134593e-03</internalNodes>
          <leafValues>
            -3.7097540497779846e-01 3.8942933082580566e-01</leafValues></_>
        <_>
          <internalNodes>
            0 -1 118 -8.2516111433506012e-05</internalNodes>
          <leafValues>
            -7.3578119277954102e-01 1.9354203343391418e-01</leafValues></_>
        <_>
          <internalNodes>
            0 -1 49 3.8198273628950119e-02</internalNodes>
          <leafValues>
            -3.6585366725921631e-01 3.7216231226921082e-01</leafValues></_>
        <_>
          <internalNodes>
            0 -1 194 7.5152580393478274e-04</internalNodes>
          <leafValues>
            -2.8524085879325867e-01 5.0415045022964478e-01</leafValues></_>
        <_>
          <internalNodes>
            0 -1 130 -2.3967955261468887e-02</internalNodes>
          <leafValues>
            2.8815579414367676e-01 -5.3531932830810547e-01</leafValues></_>
        <_>
          <internalNodes>
            0 -1 60 2.7525629848241806e-03</internalNodes>
          <leafValues>
            -3.4150090813636780e-01 4.3038502335548401e-01</leafValues></_>
        <_>
          <internalNodes>
            0 -1 25 -2.1868408657610416e-03</internalNodes>
          <leafValues>
            -8.2625782489776611e-01 1.6420820355415344e-01</leafValues></_>
        <_>
          <internalNodes>
            0 -1 178 1.5797959640622139e-03</internalNodes>
          <leafValues>
            -4.3998658657073975e-01 3.1319773197174072e-01</leafValues></_>
        <_>
          <internalNodes>
            0 -1 102 -1.9044088548980653e-04</internalNodes>
          <leafValues>
            -7.9616481065750122e-01 1.8938417732715607e-01</leafValues></_></weakClassifiers></_>
    <!-- stage 17 -->
    <_>
      <maxWeakCount>9</maxWeakCount>
      <stageThreshold>-1.0674597024917603e+00</stageThreshold>
      <weakClassifiers>
        <_>
          <internalNodes>
            0 -1 13 2.7150304522365332e-03</internalNodes>
          <leafValues>
            -5.3229397535324097e-01 2.9102843999862671e-01</leafValues></_>
        <_>
          <internalNodes>
            0 -1 198 2.0309980027377605e-03</internalNodes>
          <leafValues>
            -4.2285260558128357e-01 3.8124129176139832e-01</leafValues></_>
        <_>
          <internalNodes>
            0 -1 78 2.7113727992400527e-04</internalNodes>
          <leafValues>
            1.8433777987957001e-01 -8.2580691576004028e-01</leafValues></_>
        <_>
          <internalNodes>
            0 -1 77 -2.0362262148410082e-04</internalNodes>
          <leafValues>
            -8.2792723178863525e-01 1.8063524365425110e-01</leafValues></_>
        <_>
          <internalNodes>
            0 -1 172 -1.5358966775238514e-03</internalNodes>
          <leafValues>
            3.8207489252090454e-01 -3.9038503170013428e-01</leafValues></_>
        <_>
          <internalNodes>
            0 -1 44 -9.7601730376482010e-03</internalNodes>
          <leafValues>
            4.8626500368118286e-01 -3.1191360950469971e-01</leafValues></_>
        <_>
          <internalNodes>
            0 -1 8 7.2515045758336782e-04</internalNodes>
          <leafValues>
            -2.0725071430206299e-01 6.4407891035079956e-01</leafValues></_>
        <_>
          <internalNodes>
            0 -1 112 -8.0340731074102223e-05</internalNodes>
          <leafValues>
            -9.4113916158676147e-01 1.6005496680736542e-01</leafValues></_>
        <_>
          <internalNodes>
            0 -1 4 1.3490198180079460e-03</internalNodes>
          <leafValues>
            -2.8986781835556030e-01 5.3309166431427002e-01</leafValues></_></weakClassifiers></_>
    <!-- stage 18 -->
    <_>
      <maxWeakCount>10</maxWeakCount>
      <stageThreshold>-9.2822128534317017e-01</stageThreshold>
      <weakClassifiers>
        <_>
          <internalNodes>
            0 -1 143 2.6421204674988985e-03</internalNodes>
          <leafValues>
            -4.7826087474822998e-01 3.4000000357627869e-01</leafValues></_>
        <_>
          <internalNodes>
            0 -1 43 -1.0493256151676178e-02</internalNodes>
          <leafValues>
            4.3584731221199036e-01 -3.4346613287925720e-01</leafValues></_>
        <_>
          <internalNodes>
            0 -1 74 -8.3130481652915478e-04</internalNodes>
          <leafValues>
            3.2829114794731140e-01 -4.5815157890319824e-01</leafValues></_>
        <_>
          <internalNodes>
            0 -1 188 -9.6888619009405375e-04</internalNodes>
          <leafValues>
            3.2262217998504639e-01 -4.1752475500106812e-01</leafValues></_>
        <_>
          <internalNodes>
            0 -1 144 4.2305412353016436e-04</internalNodes>
          <leafValues>
            2.0855444669723511e-01 -7.7219343185424805e-01</leafValues></_>
        <_>
          <internalNodes>
            0 -1 129 -2.1749681327491999e-03</internalNodes>
          <leafValues>
            8.0059039592742920e-01 -2.3306623101234436e-01</leafValues></_>
        <_>
          <internalNodes>
            0 -1 38 1.2045883573591709e-02</internalNodes>
          <leafValues>
            -4.6286949515342712e-01 3.2710698246955872e-01</leafValues></_>
        <_>
          <internalNodes>
            0 -1 76 1.8118185922503471e-02</internalNodes>
          <leafValues>
            1.3946186006069183e-01 -7.4673706293106079e-01</leafValues></_>
        <_>
          <internalNodes>
            0 -1 158 2.5566862896084785e-03</internalNodes>
          <leafValues>
            -4.4040635228157043e-01 2.9847514629364014e-01</leafValues></_>
        <_>
          <internalNodes>
            0 -1 20 -4.4241271913051605e-02</internalNodes>
          <leafValues>
            1.7823557555675507e-01 -7.8300827741622925e-01</leafValues></_></weakClassifiers></_>
    <!-- stage 19 -->
    <_>
      <maxWeakCount>11</maxWeakCount>
      <stageThreshold>-1.0459965467453003e+00</stageThreshold>
      <weakClassifiers>
        <_>
          <internalNodes>
            0 -1 42 1.7201642040163279e-03</internalNodes>
          <leafValues>
            -5.2642709016799927e-01 3.3025404810905457e-01</leafValues></_>
        <_>
          <internalNodes>
            0 -1 201 1.3590799644589424e-03</internalNodes>
          <leafValues>
            -2.7877435088157654e-01 5.8353012800216675e-01</leafValues></_>
        <_>
          <internalNodes>
            0 -1 171 5.2586738020181656e-03</internalNodes>
          <leafValues>
            -4.7678363323211670e-01 2.8107401728630066e-01</leafValues></_>
        <_>
          <internalNodes>
            0 -1 63 -2.2378741414286196e-04</internalNodes>
          <leafValues>
            -7.1528923511505127e-01 1.8072681128978729e-01</leafValues></_>
        <_>
          <internalNodes>
            0 -1 86 4.7987336292862892e-03</internalNodes>
          <leafValues>
            -2.7147674560546875e-01 6.0050833225250244e-01</leafValues></_>
        <_>
          <internalNodes>
            0 -1 145 -1.5522105968557298e-04</internalNodes>
          <leafValues>
            -7.5243830680847168e-01 2.6414939761161804e-01</leafValues></_>
        <_>
          <internalNodes>
            0 -1 18 1.0469928383827209e-02</internalNodes>
          <leafValues>
            -4.9106729030609131e-01 2.6020163297653198e-01</leafValues></_>
        <_>
          <internalNodes>
            0 -1 161 -8.3179929060861468e-04</internalNodes>
          <leafValues>
            -8.0390214920043945e-01 1.8826100230216980e-01</leafValues></_>
        <_>
          <internalNodes>
            0 -1 23 2.2893853019922972e-04</internalNodes>
          <leafValues>
            -3.8255113363265991e-01 3.3737099170684814e-01</leafValues></_>
        <_>
          <internalNodes>
            0 -1 24 -1.2167305685579777e-03</internalNodes>
          <leafValues>
            6.9534361362457275e-01 -1.7683874070644379e-01</leafValues></_>
        <_>
          <internalNodes>
            0 -1 82 -2.0375399617478251e-04</internalNodes>
          <leafValues>
            3.4302145242691040e-01 -4.2264270782470703e-01</leafValues></_></weakClassifiers></_>
    <!-- stage 20 -->
    <_>
      <maxWeakCount>12</maxWeakCount>
      <stageThreshold>-1.0101456642150879e+00</stageThreshold>
      <weakClassifiers>
        <_>
          <internalNodes>
            0 -1 75 -1.3739304849877954e-03</internalNodes>
          <leafValues>
            2.8018224239349365e-01 -4.9036401510238647e-01</leafValues></_>
        <_>
          <internalNodes>
            0 -1 187 -8.9532445417717099e-04</internalNodes>
          <leafValues>
            3.7510663270950317e-01 -3.9916020631790161e-01</leafValues></_>
        <_>
          <internalNodes>
            0 -1 196 -6.4472644589841366e-04</internalNodes>
          <leafValues>
            4.3661630153656006e-01 -3.0126810073852539e-01</leafValues></_>
        <_>
          <internalNodes>
            0 -1 101 -8.1777398008853197e-06</internalNodes>
          <leafValues>
            2.5339359045028687e-01 -5.1521706581115723e-01</leafValues></_>
        <_>
          <internalNodes>
            0 -1 95 2.4638811009936035e-04</internalNodes>
          <leafValues>
            1.6046255826950073e-01 -8.2404720783233643e-01</leafValues></_>
        <_>
          <internalNodes>
            0 -1 41 -1.1824348568916321e-01</internalNodes>
          <leafValues>
            3.8269838690757751e-01 -3.1192892789840698e-01</leafValues></_>
        <_>
          <internalNodes>
            0 -1 80 6.6358144977129996e-05</internalNodes>
          <leafValues>
            -3.0927538871765137e-01 4.4221401214599609e-01</leafValues></_>
        <_>
          <internalNodes>
            0 -1 81 -4.3278373595967423e-06</internalNodes>
          <leafValues>
            2.6894009113311768e-01 -4.4521659612655640e-01</leafValues></_>
        <_>
          <internalNodes>
            0 -1 134 3.6062306025996804e-04</internalNodes>
          <leafValues>
            1.2655697762966156e-01 -8.9094561338424683e-01</leafValues></_>
        <_>
          <internalNodes>
            0 -1 125 -7.6332327444106340e-04</internalNodes>
          <leafValues>
            6.4553880691528320e-01 -2.3139388859272003e-01</leafValues></_>
        <_>
          <internalNodes>
            0 -1 195 4.6988550457172096e-04</internalNodes>
          <leafValues>
            -2.4865840375423431e-01 4.5700028538703918e-01</leafValues></_>
        <_>
          <internalNodes>
            0 -1 156 -6.1344504356384277e-03</internalNodes>
          <leafValues>
            5.6028306484222412e-01 -2.2773337364196777e-01</leafValues></_></weakClassifiers></_>
    <!-- stage 21 -->
    <_>
      <maxWeakCount>10</maxWeakCount>
      <stageThreshold>-1.1164624691009521e+00</stageThreshold>
      <weakClassifiers>
        <_>
          <internalNodes>
            0 -1 128 8.0026499927043915e-03</internalNodes>
          <leafValues>
            -4.3773585557937622e-01 3.3510637283325195e-01</leafValues></_>
        <_>
          <internalNodes>
            0 -1 3 -3.3185441046953201e-02</internalNodes>
          <leafValues>
            2.5183397531509399e-01 -5.8373343944549561e-01</leafValues></_>
        <_>
          <internalNodes>
            0 -1 169 2.6672521926229820e-05</internalNodes>
          <leafValues>
            -5.2920639514923096e-01 2.4627943336963654e-01</leafValues></_>
        <_>
          <internalNodes>
            0 -1 54 -1.8647734541445971e-03</internalNodes>
          <leafValues>
            3.2851979136466980e-01 -3.8243782520294189e-01</leafValues></_>
        <_>
          <internalNodes>
            0 -1 28 -2.7032985235564411e-04</internalNodes>
          <leafValues>
            3.4360846877098083e-01 -3.7198147177696228e-01</leafValues></_>
        <_>
          <internalNodes>
            0 -1 46 -4.3438607826828957e-03</internalNodes>
          <leafValues>
            3.9871859550476074e-01 -3.3046284317970276e-01</leafValues></_>
        <_>
          <internalNodes>
            0 -1 117 4.4590502511709929e-04</internalNodes>
          <leafValues>
            1.3889656960964203e-01 -9.1284072399139404e-01</leafValues></_>
        <_>
          <internalNodes>
            0 -1 124 -1.8812123686075211e-02</internalNodes>
          <leafValues>
            3.0771368741989136e-01 -4.0943083167076111e-01</leafValues></_>
        <_>
          <internalNodes>
            0 -1 50 2.7453638613224030e-02</internalNodes>
          <leafValues>
            -2.5961422920227051e-01 5.3986042737960815e-01</leafValues></_>
        <_>
          <internalNodes>
            0 -1 100 1.9017414888367057e-03</internalNodes>
          <leafValues>
            -1.7833289504051208e-01 7.2262620925903320e-01</leafValues></_></weakClassifiers></_>
    <!-- stage 22 -->
    <_>
      <maxWeakCount>10</maxWeakCount>
      <stageThreshold>-9.3434870243072510e-01</stageThreshold>
      <weakClassifiers>
        <_>
          <internalNodes>
            0 -1 180 1.9785687327384949e-03</internalNodes>
          <leafValues>
            -5.5154639482498169e-01 2.0849420130252838e-01</leafValues></_>
        <_>
          <internalNodes>
            0 -1 141 5.9080519713461399e-04</internalNodes>
          <leafValues>
            -4.0673393011093140e-01 3.5259696841239929e-01</leafValues></_>
        <_>
          <internalNodes>
            0 -1 176 -7.5840996578335762e-03</internalNodes>
          <leafValues>
            5.1786500215530396e-01 -2.5737032294273376e-01</leafValues></_>
        <_>
          <internalNodes>
            0 -1 79 6.6332705318927765e-04</internalNodes>
          <leafValues>
            2.2702695429325104e-01 -6.1678099632263184e-01</leafValues></_>
        <_>
          <internalNodes>
            0 -1 85 -4.2530824430286884e-03</internalNodes>
          <leafValues>
            6.3604050874710083e-01 -1.9996665418148041e-01</leafValues></_>
        <_>
          <internalNodes>
            0 -1 88 -1.5725294360890985e-04</internalNodes>
          <leafValues>
            -7.9065787792205811e-01 1.9676187634468079e-01</leafValues></_>
        <_>
          <internalNodes>
            0 -1 47 -2.1634781733155251e-03</internalNodes>
          <leafValues>
            -6.9455134868621826e-01 1.3398286700248718e-01</leafValues></_>
        <_>
          <internalNodes>
            0 -1 201 6.5175362396985292e-04</internalNodes>
          <leafValues>
            -3.5320562124252319e-01 3.6720722913742065e-01</leafValues></_>
        <_>
          <internalNodes>
            0 -1 119 -2.5653809309005737e-02</internalNodes>
          <leafValues>
            1.9542060792446136e-01 -6.5894806385040283e-01</leafValues></_>
        <_>
          <internalNodes>
            0 -1 133 2.6818761398317292e-05</internalNodes>
          <leafValues>
            -3.5400569438934326e-01 4.4261687994003296e-01</leafValues></_></weakClassifiers></_>
    <!-- stage 23 -->
    <_>
      <maxWeakCount>12</maxWeakCount>
      <stageThreshold>-1.2136170864105225e+00</stageThreshold>
      <weakClassifiers>
        <_>
          <internalNodes>
            0 -1 107 -6.2798149883747101e-05</internalNodes>
          <leafValues>
            2.4511930346488953e-01 -4.9213483929634094e-01</leafValues></_>
        <_>
          <internalNodes>
            0 -1 175 -2.3430963978171349e-02</internalNodes>
          <leafValues>
            3.3429411053657532e-01 -3.7818041443824768e-01</leafValues></_>
        <_>
          <internalNodes>
            0 -1 21 1.0358541039749980e-03</internalNodes>
          <leafValues>
            -4.3721809983253479e-01 2.8347125649452209e-01</leafValues></_>
        <_>
          <internalNodes>
            0 -1 37 -1.2296927161514759e-04</internalNodes>
          <leafValues>
            4.0356922149658203e-01 -2.6333141326904297e-01</leafValues></_>
        <_>
          <internalNodes>
            0 -1 115 6.7942447960376740e-02</internalNodes>
          <leafValues>
            -2.9611736536026001e-01 3.6243799328804016e-01</leafValues></_>
        <_>
          <internalNodes>
            0 -1 31 1.7411788576282561e-04</internalNodes>
          <leafValues>
            -2.3575446009635925e-01 4.6924307942390442e-01</leafValues></_>
        <_>
          <internalNodes>
            0 -1 5 -3.3569065853953362e-03</internalNodes>
          <leafValues>
            6.9942027330398560e-01 -1.9600936770439148e-01</leafValues></_>
        <_>
          <internalNodes>
            0 -1 65 1.3822727487422526e-04</internalNodes>
          <leafValues>
            1.8498177826404572e-01 -8.1947094202041626e-01</leafValues></_>
        <_>
          <internalNodes>
            0 -1 154 5.3227972239255905e-03</internalNodes>
          <leafValues>
            -2.0429989695549011e-01 7.6119506359100342e-01</leafValues></_>
        <_>
          <internalNodes>
            0 -1 67 -6.3912430778145790e-03</internalNodes>
          <leafValues>
            5.9452527761459351e-01 -1.8701732158660889e-01</leafValues></_>
        <_>
          <internalNodes>
            0 -1 183 -2.6998606044799089e-03</internalNodes>
          <leafValues>
            -7.2983044385910034e-01 1.5807032585144043e-01</leafValues></_>
        <_>
          <internalNodes>
            0 -1 27 -3.1397576094605029e-04</internalNodes>
          <leafValues>
            4.7104796767234802e-01 -2.6241549849510193e-01</leafValues></_></weakClassifiers></_>
    <!-- stage 24 -->
    <_>
      <maxWeakCount>14</maxWeakCount>
      <stageThreshold>-1.2064023017883301e+00</stageThreshold>
      <weakClassifiers>
        <_>
          <internalNodes>
            0 -1 140 3.9954587817192078e-02</internalNodes>
          <leafValues>
            -5.5858308076858521e-01 1.8367347121238708e-01</leafValues></_>
        <_>
          <internalNodes>
            0 -1 62 -4.2916703387163579e-04</internalNodes>
          <leafValues>
            3.1005942821502686e-01 -3.6584010720252991e-01</leafValues></_>
        <_>
          <internalNodes>
            0 -1 93 7.5951000326313078e-05</internalNodes>
          <leafValues>
            1.3513478636741638e-01 -8.5683172941207886e-01</leafValues></_>
        <_>
          <internalNodes>
            0 -1 61 -1.3135403394699097e-01</internalNodes>
          <leafValues>
            5.3808897733688354e-01 -2.1364432573318481e-01</leafValues></_>
        <_>
          <internalNodes>
            0 -1 14 4.5814103214070201e-04</internalNodes>
          <leafValues>
            -3.3662113547325134e-01 3.5293868184089661e-01</leafValues></_>
        <_>
          <internalNodes>
            0 -1 35 9.8468572832643986e-04</internalNodes>
          <leafValues>
            -2.6669690012931824e-01 4.8887473344802856e-01</leafValues></_>
        <_>
          <internalNodes>
            0 -1 146 -8.4113911725580692e-04</internalNodes>
          <leafValues>
            -8.5182458162307739e-01 1.6397333145141602e-01</leafValues></_>
        <_>
          <internalNodes>
            0 -1 164 4.3147865653736517e-06</internalNodes>
          <leafValues>
            -3.6559695005416870e-01 3.1509023904800415e-01</leafValues></_>
        <_>
          <internalNodes>
            0 -1 69 1.7465003766119480e-03</internalNodes>
          <leafValues>
            -1.9949492812156677e-01 6.2221825122833252e-01</leafValues></_>
        <_>
          <internalNodes>
            0 -1 148 1.2361721019260585e-04</internalNodes>
          <leafValues>
            -2.7590164542198181e-01 4.5225626230239868e-01</leafValues></_>
        <_>
          <internalNodes>
            0 -1 110 1.7731910338625312e-04</internalNodes>
          <leafValues>
            1.6670222580432892e-01 -8.3674818277359009e-01</leafValues></_>
        <_>
          <internalNodes>
            0 -1 192 1.3344157487154007e-02</internalNodes>
          <leafValues>
            -5.5213934183120728e-01 2.1573190391063690e-01</leafValues></_>
        <_>
          <internalNodes>
            0 -1 26 6.6575210075825453e-04</internalNodes>
          <leafValues>
            -2.1576994657516479e-01 7.3264008760452271e-01</leafValues></_>
        <_>
          <internalNodes>
            0 -1 184 2.9023154638707638e-05</internalNodes>
          <leafValues>
            2.4660468101501465e-01 -4.8769825696945190e-01</leafValues></_></weakClassifiers></_></stages>
  <features>
    <_>
      <rects>
        <_>
          0 0 5 14 -1.</_>
        <_>
          0 7 5 7 2.</_></rects>
      <tilted>0</tilted></_>
    <_>
      <rects>
        <_>
          0 0 21 38 -1.</_>
        <_>
          7 0 7 38 3.</_></rects>
      <tilted>0</tilted></_>
    <_>
      <rects>
        <_>
          0 1 10 35 -1.</_>
        <_>
          5 1 5 35 2.</_></rects>
      <tilted>0</tilted></_>
    <_>
      <rects>
        <_>
          0 2 6 38 -1.</_>
        <_>
          0 21 6 19 2.</_></rects>
      <tilted>0</tilted></_>
    <_>
      <rects>
        <_>
          0 3 2 10 -1.</_>
        <_>
          1 3 1 10 2.</_></rects>
      <tilted>0</tilted></_>
    <_>
      <rects>
        <_>
          0 4 6 8 -1.</_>
        <_>
          2 4 2 8 3.</_></rects>
      <tilted>0</tilted></_>
    <_>
      <rects>
        <_>
          0 5 3 5 -1.</_>
        <_>
          1 5 1 5 3.</_></rects>
      <tilted>0</tilted></_>
    <_>
      <rects>
        <_>
          0 7 6 21 -1.</_>
        <_>
          3 7 3 21 2.</_></rects>
      <tilted>0</tilted></_>
    <_>
      <rects>
        <_>
          0 8 2 8 -1.</_>
        <_>
          0 8 1 4 2.</_>
        <_>
          1 12 1 4 2.</_></rects>
      <tilted>0</tilted></_>
    <_>
      <rects>
        <_>
          0 8 21 5 -1.</_>
        <_>
          7 8 7 5 3.</_></rects>
      <tilted>0</tilted></_>
    <_>
      <rects>
        <_>
          0 8 45 21 -1.</_>
        <_>
          0 15 45 7 3.</_></rects>
      <tilted>0</tilted></_>
    <_>
      <rects>
        <_>
          0 10 4 22 -1.</_>
        <_>
          2 10 2 22 2.</_></rects>
      <tilted>0</tilted></_>
    <_>
      <rects>
        <_>
          0 11 2 14 -1.</_>
        <_>
          1 11 1 14 2.</_></rects>
      <tilted>0</tilted></_>
    <_>
      <rects>
        <_>
          0 12 4 18 -1.</_>
        <_>
          2 12 2 18 2.</_></rects>
      <tilted>0</tilted></_>
    <_>
      <rects>
        <_>
          0 13 2 9 -1.</_>
        <_>
          1 13 1 9 2.</_></rects>
      <tilted>0</tilted></_>
    <_>
      <rects>
        <_>
          0 13 4 26 -1.</_>
        <_>
          0 13 2 13 2.</_>
        <_>
          2 26 2 13 2.</_></rects>
      <tilted>0</tilted></_>
    <_>
      <rects>
        <_>
          0 13 10 17 -1.</_>
        <_>
          5 13 5 17 2.</_></rects>
      <tilted>0</tilted></_>
    <_>
      <rects>
        <_>
          0 14 8 14 -1.</_>
        <_>
          4 14 4 14 2.</_></rects>
      <tilted>0</tilted></_>
    <_>
      <rects>
        <_>
          0 14 10 15 -1.</_>
        <_>
          5 14 5 15 2.</_></rects>
      <tilted>0</tilted></_>
    <_>
      <rects>
        <_>
          0 20 24 8 -1.</_>
        <_>
          8 20 8 8 3.</_></rects>
      <tilted>0</tilted></_>
    <_>
      <rects>
        <_>
          0 22 36 18 -1.</_>
        <_>
          0 31 36 9 2.</_></rects>
      <tilted>0</tilted></_>
    <_>
      <rects>
        <_>
          0 23 8 2 -1.</_>
        <_>
          4 23 4 2 2.</_></rects>
      <tilted>0</tilted></_>
    <_>
      <rects>
        <_>
          0 23 24 4 -1.</_>
        <_>
          8 23 8 4 3.</_></rects>
      <tilted>0</tilted></_>
    <_>
      <rects>
        <_>
          0 24 2 5 -1.</_>
        <_>
          1 24 1 5 2.</_></rects>
      <tilted>0</tilted></_>
    <_>
      <rects>
        <_>
          0 24 3 11 -1.</_>
        <_>
          1 24 1 11 3.</_></rects>
      <tilted>0</tilted></_>
    <_>
      <rects>
        <_>
          0 28 2 12 -1.</_>
        <_>
          0 32 2 4 3.</_></rects>
      <tilted>0</tilted></_>
    <_>
      <rects>
        <_>
          0 33 3 5 -1.</_>
        <_>
          1 33 1 5 3.</_></rects>
      <tilted>0</tilted></_>
    <_>
      <rects>
        <_>
          0 35 2 5 -1.</_>
        <_>
          1 35 1 5 2.</_></rects>
      <tilted>0</tilted></_>
    <_>
      <rects>
        <_>
          0 38 9 2 -1.</_>
        <_>
          3 38 3 2 3.</_></rects>
      <tilted>0</tilted></_>
    <_>
      <rects>
        <_>
          1 0 36 2 -1.</_>
        <_>
          1 0 18 1 2.</_>
        <_>
          19 1 18 1 2.</_></rects>
      <tilted>0</tilted></_>
    <_>
      <rects>
        <_>
          1 4 44 27 -1.</_>
        <_>
          1 13 44 9 3.</_></rects>
      <tilted>0</tilted></_>
    <_>
      <rects>
        <_>
          1 7 2 2 -1.</_>
        <_>
          2 7 1 2 2.</_></rects>
      <tilted>0</tilted></_>
    <_>
      <rects>
        <_>
          1 9 14 6 -1.</_>
        <_>
          1 11 14 2 3.</_></rects>
      <tilted>0</tilted></_>
    <_>
      <rects>
        <_>
          1 14 14 26 -1.</_>
        <_>
          1 27 14 13 2.</_></rects>
      <tilted>0</tilted></_>
    <_>
      <rects>
        <_>
          1 16 47 24 -1.</_>
        <_>
          1 28 47 12 2.</_></rects>
      <tilted>0</tilted></_>
    <_>
      <rects>
        <_>
          2 0 10 3 -1.</_>
        <_>
          2 1 10 1 3.</_></rects>
      <tilted>0</tilted></_>
    <_>
      <rects>
        <_>
          2 0 42 16 -1.</_>
        <_>
          2 0 21 8 2.</_>
        <_>
          23 8 21 8 2.</_></rects>
      <tilted>0</tilted></_>
    <_>
      <rects>
        <_>
          2 10 6 2 -1.</_>
        <_>
          2 11 6 1 2.</_></rects>
      <tilted>0</tilted></_>
    <_>
      <rects>
        <_>
          2 10 23 12 -1.</_>
        <_>
          2 14 23 4 3.</_></rects>
      <tilted>0</tilted></_>
    <_>
      <rects>
        <_>
          2 12 12 28 -1.</_>
        <_>
          2 26 12 14 2.</_></rects>
      <tilted>0</tilted></_>
    <_>
      <rects>
        <_>
          2 12 40 26 -1.</_>
        <_>
          2 25 40 13 2.</_></rects>
      <tilted>0</tilted></_>
    <_>
      <rects>
        <_>
          2 16 40 14 -1.</_>
        <_>
          2 23 40 7 2.</_></rects>
      <tilted>0</tilted></_>
    <_>
      <rects>
        <_>
          3 0 34 2 -1.</_>
        <_>
          3 0 17 1 2.</_>
        <_>
          20 1 17 1 2.</_></rects>
      <tilted>0</tilted></_>
    <_>
      <rects>
        <_>
          3 0 44 1 -1.</_>
        <_>
          25 0 22 1 2.</_></rects>
      <tilted>0</tilted></_>
    <_>
      <rects>
        <_>
          3 10 25 6 -1.</_>
        <_>
          3 12 25 2 3.</_></rects>
      <tilted>0</tilted></_>
    <_>
      <rects>
        <_>
          3 16 18 24 -1.</_>
        <_>
          3 28 18 12 2.</_></rects>
      <tilted>0</tilted></_>
    <_>
      <rects>
        <_>
          3 30 24 6 -1.</_>
        <_>
          3 30 12 3 2.</_>
        <_>
          15 33 12 3 2.</_></rects>
      <tilted>0</tilted></_>
    <_>
      <rects>
        <_>
          3 38 22 2 -1.</_>
        <_>
          14 38 11 2 2.</_></rects>
      <tilted>0</tilted></_>
    <_>
      <rects>
        <_>
          4 0 8 2 -1.</_>
        <_>
          4 1 8 1 2.</_></rects>
      <tilted>0</tilted></_>
    <_>
      <rects>
        <_>
          4 1 45 15 -1.</_>
        <_>
          19 1 15 15 3.</_></rects>
      <tilted>0</tilted></_>
    <_>
      <rects>
        <_>
          4 24 24 10 -1.</_>
        <_>
          4 24 12 5 2.</_>
        <_>
          16 29 12 5 2.</_></rects>
      <tilted>0</tilted></_>
    <_>
      <rects>
        <_>
          4 37 1 2 -1.</_>
        <_>
          4 38 1 1 2.</_></rects>
      <tilted>0</tilted></_>
    <_>
      <rects>
        <_>
          4 38 46 2 -1.</_>
        <_>
          27 38 23 2 2.</_></rects>
      <tilted>0</tilted></_>
    <_>
      <rects>
        <_>
          4 38 45 2 -1.</_>
        <_>
          4 39 45 1 2.</_></rects>
      <tilted>0</tilted></_>
    <_>
      <rects>
        <_>
          5 0 4 14 -1.</_>
        <_>
          5 7 4 7 2.</_></rects>
      <tilted>0</tilted></_>
    <_>
      <rects>
        <_>
          5 0 15 6 -1.</_>
        <_>
          5 2 15 2 3.</_></rects>
      <tilted>0</tilted></_>
    <_>
      <rects>
        <_>
          5 0 34 1 -1.</_>
        <_>
          22 0 17 1 2.</_></rects>
      <tilted>0</tilted></_>
    <_>
      <rects>
        <_>
          5 8 22 9 -1.</_>
        <_>
          5 11 22 3 3.</_></rects>
      <tilted>0</tilted></_>
    <_>
      <rects>
        <_>
          5 20 13 20 -1.</_>
        <_>
          5 30 13 10 2.</_></rects>
      <tilted>0</tilted></_>
    <_>
      <rects>
        <_>
          6 1 12 3 -1.</_>
        <_>
          6 2 12 1 3.</_></rects>
      <tilted>0</tilted></_>
    <_>
      <rects>
        <_>
          6 11 9 6 -1.</_>
        <_>
          6 13 9 2 3.</_></rects>
      <tilted>0</tilted></_>
    <_>
      <rects>
        <_>
          6 14 11 26 -1.</_>
        <_>
          6 27 11 13 2.</_></rects>
      <tilted>0</tilted></_>
    <_>
      <rects>
        <_>
          7 0 6 2 -1.</_>
        <_>
          7 1 6 1 2.</_></rects>
      <tilted>0</tilted></_>
    <_>
      <rects>
        <_>
          7 1 6 2 -1.</_>
        <_>
          9 1 2 2 3.</_></rects>
      <tilted>0</tilted></_>
    <_>
      <rects>
        <_>
          7 7 8 9 -1.</_>
        <_>
          7 10 8 3 3.</_></rects>
      <tilted>0</tilted></_>
    <_>
      <rects>
        <_>
          8 0 2 2 -1.</_>
        <_>
          9 0 1 2 2.</_></rects>
      <tilted>0</tilted></_>
    <_>
      <rects>
        <_>
          9 1 4 39 -1.</_>
        <_>
          9 14 4 13 3.</_></rects>
      <tilted>0</tilted></_>
    <_>
      <rects>
        <_>
          9 10 17 9 -1.</_>
        <_>
          9 13 17 3 3.</_></rects>
      <tilted>0</tilted></_>
    <_>
      <rects>
        <_>
          9 11 3 4 -1.</_>
        <_>
          9 13 3 2 2.</_></rects>
      <tilted>0</tilted></_>
    <_>
      <rects>
        <_>
          9 20 6 6 -1.</_>
        <_>
          9 20 3 3 2.</_>
        <_>
          12 23 3 3 2.</_></rects>
      <tilted>0</tilted></_>
    <_>
      <rects>
        <_>
          9 22 14 3 -1.</_>
        <_>
          16 22 7 3 2.</_></rects>
      <tilted>0</tilted></_>
    <_>
      <rects>
        <_>
          9 23 24 12 -1.</_>
        <_>
          9 23 12 6 2.</_>
        <_>
          21 29 12 6 2.</_></rects>
      <tilted>0</tilted></_>
    <_>
      <rects>
        <_>
          9 30 29 10 -1.</_>
        <_>
          9 35 29 5 2.</_></rects>
      <tilted>0</tilted></_>
    <_>
      <rects>
        <_>
          10 12 6 5 -1.</_>
        <_>
          13 12 3 5 2.</_></rects>
      <tilted>0</tilted></_>
    <_>
      <rects>
        <_>
          10 13 14 13 -1.</_>
        <_>
          17 13 7 13 2.</_></rects>
      <tilted>0</tilted></_>
    <_>
      <rects>
        <_>
          10 34 21 1 -1.</_>
        <_>
          17 34 7 1 3.</_></rects>
      <tilted>0</tilted></_>
    <_>
      <rects>
        <_>
          11 0 13 16 -1.</_>
        <_>
          11 8 13 8 2.</_></rects>
      <tilted>0</tilted></_>
    <_>
      <rects>
        <_>
          12 1 6 1 -1.</_>
        <_>
          14 1 2 1 3.</_></rects>
      <tilted>0</tilted></_>
    <_>
      <rects>
        <_>
          12 1 6 2 -1.</_>
        <_>
          14 1 2 2 3.</_></rects>
      <tilted>0</tilted></_>
    <_>
      <rects>
        <_>
          12 7 20 3 -1.</_>
        <_>
          12 8 20 1 3.</_></rects>
      <tilted>0</tilted></_>
    <_>
      <rects>
        <_>
          12 20 3 4 -1.</_>
        <_>
          12 22 3 2 2.</_></rects>
      <tilted>0</tilted></_>
    <_>
      <rects>
        <_>
          12 38 1 2 -1.</_>
        <_>
          12 39 1 1 2.</_></rects>
      <tilted>0</tilted></_>
    <_>
      <rects>
        <_>
          13 0 2 6 -1.</_>
        <_>
          13 2 2 2 3.</_></rects>
      <tilted>0</tilted></_>
    <_>
      <rects>
        <_>
          14 1 1 2 -1.</_>
        <_>
          14 2 1 1 2.</_></rects>
      <tilted>0</tilted></_>
    <_>
      <rects>
        <_>
          14 3 4 6 -1.</_>
        <_>
          14 6 4 3 2.</_></rects>
      <tilted>0</tilted></_>
    <_>
      <rects>
        <_>
          14 24 28 3 -1.</_>
        <_>
          14 25 28 1 3.</_></rects>
      <tilted>0</tilted></_>
    <_>
      <rects>
        <_>
          14 37 32 3 -1.</_>
        <_>
          14 38 32 1 3.</_></rects>
      <tilted>0</tilted></_>
    <_>
      <rects>
        <_>
          15 0 20 3 -1.</_>
        <_>
          15 1 20 1 3.</_></rects>
      <tilted>0</tilted></_>
    <_>
      <rects>
        <_>
          15 1 6 1 -1.</_>
        <_>
          17 1 2 1 3.</_></rects>
      <tilted>0</tilted></_>
    <_>
      <rects>
        <_>
          15 10 6 12 -1.</_>
        <_>
          15 14 6 4 3.</_></rects>
      <tilted>0</tilted></_>
    <_>
      <rects>
        <_>
          15 13 9 6 -1.</_>
        <_>
          18 13 3 6 3.</_></rects>
      <tilted>0</tilted></_>
    <_>
      <rects>
        <_>
          15 26 28 9 -1.</_>
        <_>
          15 29 28 3 3.</_></rects>
      <tilted>0</tilted></_>
    <_>
      <rects>
        <_>
          16 1 1 2 -1.</_>
        <_>
          16 2 1 1 2.</_></rects>
      <tilted>0</tilted></_>
    <_>
      <rects>
        <_>
          16 1 3 1 -1.</_>
        <_>
          17 1 1 1 3.</_></rects>
      <tilted>0</tilted></_>
    <_>
      <rects>
        <_>
          16 13 3 6 -1.</_>
        <_>
          17 13 1 6 3.</_></rects>
      <tilted>0</tilted></_>
    <_>
      <rects>
        <_>
          16 14 4 2 -1.</_>
        <_>
          18 14 2 2 2.</_></rects>
      <tilted>0</tilted></_>
    <_>
      <rects>
        <_>
          16 15 3 4 -1.</_>
        <_>
          17 15 1 4 3.</_></rects>
      <tilted>0</tilted></_>
    <_>
      <rects>
        <_>
          16 15 15 4 -1.</_>
        <_>
          21 15 5 4 3.</_></rects>
      <tilted>0</tilted></_>
    <_>
      <rects>
        <_>
          16 16 18 3 -1.</_>
        <_>
          22 16 6 3 3.</_></rects>
      <tilted>0</tilted></_>
    <_>
      <rects>
        <_>
          17 0 22 2 -1.</_>
        <_>
          28 0 11 2 2.</_></rects>
      <tilted>0</tilted></_>
    <_>
      <rects>
        <_>
          17 12 17 3 -1.</_>
        <_>
          17 13 17 1 3.</_></rects>
      <tilted>0</tilted></_>
    <_>
      <rects>
        <_>
          17 31 1 2 -1.</_>
        <_>
          17 32 1 1 2.</_></rects>
      <tilted>0</tilted></_>
    <_>
      <rects>
        <_>
          17 39 6 1 -1.</_>
        <_>
          19 39 2 1 3.</_></rects>
      <tilted>0</tilted></_>
    <_>
      <rects>
        <_>
          18 1 4 2 -1.</_>
        <_>
          18 2 4 1 2.</_></rects>
      <tilted>0</tilted></_>
    <_>
      <rects>
        <_>
          18 11 27 15 -1.</_>
        <_>
          18 16 27 5 3.</_></rects>
      <tilted>0</tilted></_>
    <_>
      <rects>
        <_>
          18 30 20 10 -1.</_>
        <_>
          18 35 20 5 2.</_></rects>
      <tilted>0</tilted></_>
    <_>
      <rects>
        <_>
          18 32 1 2 -1.</_>
        <_>
          18 33 1 1 2.</_></rects>
      <tilted>0</tilted></_>
    <_>
      <rects>
        <_>
          19 1 1 2 -1.</_>
        <_>
          19 2 1 1 2.</_></rects>
      <tilted>0</tilted></_>
    <_>
      <rects>
        <_>
          19 3 28 26 -1.</_>
        <_>
          19 3 14 13 2.</_>
        <_>
          33 16 14 13 2.</_></rects>
      <tilted>0</tilted></_>
    <_>
      <rects>
        <_>
          19 14 2 6 -1.</_>
        <_>
          19 14 1 3 2.</_>
        <_>
          20 17 1 3 2.</_></rects>
      <tilted>0</tilted></_>
    <_>
      <rects>
        <_>
          19 15 3 4 -1.</_>
        <_>
          20 15 1 4 3.</_></rects>
      <tilted>0</tilted></_>
    <_>
      <rects>
        <_>
          19 15 21 12 -1.</_>
        <_>
          19 21 21 6 2.</_></rects>
      <tilted>0</tilted></_>
    <_>
      <rects>
        <_>
          19 16 3 2 -1.</_>
        <_>
          20 16 1 2 3.</_></rects>
      <tilted>0</tilted></_>
    <_>
      <rects>
        <_>
          19 30 23 10 -1.</_>
        <_>
          19 35 23 5 2.</_></rects>
      <tilted>0</tilted></_>
    <_>
      <rects>
        <_>
          20 0 19 3 -1.</_>
        <_>
          20 1 19 1 3.</_></rects>
      <tilted>0</tilted></_>
    <_>
      <rects>
        <_>
          20 10 25 15 -1.</_>
        <_>
          20 15 25 5 3.</_></rects>
      <tilted>0</tilted></_>
    <_>
      <rects>
        <_>
          20 11 18 15 -1.</_>
        <_>
          20 16 18 5 3.</_></rects>
      <tilted>0</tilted></_>
    <_>
      <rects>
        <_>
          20 14 4 6 -1.</_>
        <_>
          22 14 2 6 2.</_></rects>
      <tilted>0</tilted></_>
    <_>
      <rects>
        <_>
          20 18 4 1 -1.</_>
        <_>
          22 18 2 1 2.</_></rects>
      <tilted>0</tilted></_>
    <_>
      <rects>
        <_>
          20 30 25 10 -1.</_>
        <_>
          20 35 25 5 2.</_></rects>
      <tilted>0</tilted></_>
    <_>
      <rects>
        <_>
          21 16 9 2 -1.</_>
        <_>
          24 16 3 2 3.</_></rects>
      <tilted>0</tilted></_>
    <_>
      <rects>
        <_>
          21 33 18 3 -1.</_>
        <_>
          27 33 6 3 3.</_></rects>
      <tilted>0</tilted></_>
    <_>
      <rects>
        <_>
          21 37 12 3 -1.</_>
        <_>
          21 38 12 1 3.</_></rects>
      <tilted>0</tilted></_>
    <_>
      <rects>
        <_>
          21 39 6 1 -1.</_>
        <_>
          23 39 2 1 3.</_></rects>
      <tilted>0</tilted></_>
    <_>
      <rects>
        <_>
          22 4 28 7 -1.</_>
        <_>
          36 4 14 7 2.</_></rects>
      <tilted>0</tilted></_>
    <_>
      <rects>
        <_>
          22 12 9 2 -1.</_>
        <_>
          22 13 9 1 2.</_></rects>
      <tilted>0</tilted></_>
    <_>
      <rects>
        <_>
          22 18 15 3 -1.</_>
        <_>
          27 18 5 3 3.</_></rects>
      <tilted>0</tilted></_>
    <_>
      <rects>
        <_>
          23 0 22 26 -1.</_>
        <_>
          23 0 11 13 2.</_>
        <_>
          34 13 11 13 2.</_></rects>
      <tilted>0</tilted></_>
    <_>
      <rects>
        <_>
          23 5 12 32 -1.</_>
        <_>
          27 5 4 32 3.</_></rects>
      <tilted>0</tilted></_>
    <_>
      <rects>
        <_>
          23 25 6 3 -1.</_>
        <_>
          23 26 6 1 3.</_></rects>
      <tilted>0</tilted></_>
    <_>
      <rects>
        <_>
          23 30 17 10 -1.</_>
        <_>
          23 35 17 5 2.</_></rects>
      <tilted>0</tilted></_>
    <_>
      <rects>
        <_>
          23 34 4 6 -1.</_>
        <_>
          25 34 2 6 2.</_></rects>
      <tilted>0</tilted></_>
    <_>
      <rects>
        <_>
          23 39 4 1 -1.</_>
        <_>
          25 39 2 1 2.</_></rects>
      <tilted>0</tilted></_>
    <_>
      <rects>
        <_>
          24 4 4 2 -1.</_>
        <_>
          26 4 2 2 2.</_></rects>
      <tilted>0</tilted></_>
    <_>
      <rects>
        <_>
          24 14 4 3 -1.</_>
        <_>
          26 14 2 3 2.</_></rects>
      <tilted>0</tilted></_>
    <_>
      <rects>
        <_>
          24 16 3 4 -1.</_>
        <_>
          25 16 1 4 3.</_></rects>
      <tilted>0</tilted></_>
    <_>
      <rects>
        <_>
          24 17 3 1 -1.</_>
        <_>
          25 17 1 1 3.</_></rects>
      <tilted>0</tilted></_>
    <_>
      <rects>
        <_>
          24 17 12 2 -1.</_>
        <_>
          28 17 4 2 3.</_></rects>
      <tilted>0</tilted></_>
    <_>
      <rects>
        <_>
          24 28 15 3 -1.</_>
        <_>
          24 29 15 1 3.</_></rects>
      <tilted>0</tilted></_>
    <_>
      <rects>
        <_>
          25 7 1 12 -1.</_>
        <_>
          25 11 1 4 3.</_></rects>
      <tilted>0</tilted></_>
    <_>
      <rects>
        <_>
          25 7 24 22 -1.</_>
        <_>
          25 7 12 11 2.</_>
        <_>
          37 18 12 11 2.</_></rects>
      <tilted>0</tilted></_>
    <_>
      <rects>
        <_>
          25 13 3 6 -1.</_>
        <_>
          25 15 3 2 3.</_></rects>
      <tilted>0</tilted></_>
    <_>
      <rects>
        <_>
          25 32 11 6 -1.</_>
        <_>
          25 35 11 3 2.</_></rects>
      <tilted>0</tilted></_>
    <_>
      <rects>
        <_>
          25 33 12 4 -1.</_>
        <_>
          29 33 4 4 3.</_></rects>
      <tilted>0</tilted></_>
    <_>
      <rects>
        <_>
          25 39 9 1 -1.</_>
        <_>
          28 39 3 1 3.</_></rects>
      <tilted>0</tilted></_>
    <_>
      <rects>
        <_>
          26 39 6 1 -1.</_>
        <_>
          28 39 2 1 3.</_></rects>
      <tilted>0</tilted></_>
    <_>
      <rects>
        <_>
          26 39 12 1 -1.</_>
        <_>
          30 39 4 1 3.</_></rects>
      <tilted>0</tilted></_>
    <_>
      <rects>
        <_>
          27 11 1 8 -1.</_>
        <_>
          27 15 1 4 2.</_></rects>
      <tilted>0</tilted></_>
    <_>
      <rects>
        <_>
          27 12 4 3 -1.</_>
        <_>
          27 13 4 1 3.</_></rects>
      <tilted>0</tilted></_>
    <_>
      <rects>
        <_>
          27 16 9 4 -1.</_>
        <_>
          30 16 3 4 3.</_></rects>
      <tilted>0</tilted></_>
    <_>
      <rects>
        <_>
          27 26 9 3 -1.</_>
        <_>
          27 27 9 1 3.</_></rects>
      <tilted>0</tilted></_>
    <_>
      <rects>
        <_>
          27 38 6 2 -1.</_>
        <_>
          29 38 2 2 3.</_></rects>
      <tilted>0</tilted></_>
    <_>
      <rects>
        <_>
          28 17 12 2 -1.</_>
        <_>
          32 17 4 2 3.</_></rects>
      <tilted>0</tilted></_>
    <_>
      <rects>
        <_>
          28 18 6 2 -1.</_>
        <_>
          30 18 2 2 3.</_></rects>
      <tilted>0</tilted></_>
    <_>
      <rects>
        <_>
          28 37 19 3 -1.</_>
        <_>
          28 38 19 1 3.</_></rects>
      <tilted>0</tilted></_>
    <_>
      <rects>
        <_>
          28 39 12 1 -1.</_>
        <_>
          32 39 4 1 3.</_></rects>
      <tilted>0</tilted></_>
    <_>
      <rects>
        <_>
          29 6 18 5 -1.</_>
        <_>
          35 6 6 5 3.</_></rects>
      <tilted>0</tilted></_>
    <_>
      <rects>
        <_>
          29 15 6 16 -1.</_>
        <_>
          29 23 6 8 2.</_></rects>
      <tilted>0</tilted></_>
    <_>
      <rects>
        <_>
          29 19 16 8 -1.</_>
        <_>
          29 19 8 4 2.</_>
        <_>
          37 23 8 4 2.</_></rects>
      <tilted>0</tilted></_>
    <_>
      <rects>
        <_>
          29 34 21 6 -1.</_>
        <_>
          36 34 7 6 3.</_></rects>
      <tilted>0</tilted></_>
    <_>
      <rects>
        <_>
          30 13 20 14 -1.</_>
        <_>
          30 13 10 7 2.</_>
        <_>
          40 20 10 7 2.</_></rects>
      <tilted>0</tilted></_>
    <_>
      <rects>
        <_>
          30 17 9 4 -1.</_>
        <_>
          33 17 3 4 3.</_></rects>
      <tilted>0</tilted></_>
    <_>
      <rects>
        <_>
          30 25 20 10 -1.</_>
        <_>
          30 25 10 5 2.</_>
        <_>
          40 30 10 5 2.</_></rects>
      <tilted>0</tilted></_>
    <_>
      <rects>
        <_>
          30 34 10 6 -1.</_>
        <_>
          30 34 5 3 2.</_>
        <_>
          35 37 5 3 2.</_></rects>
      <tilted>0</tilted></_>
    <_>
      <rects>
        <_>
          31 14 1 3 -1.</_>
        <_>
          31 15 1 1 3.</_></rects>
      <tilted>0</tilted></_>
    <_>
      <rects>
        <_>
          31 25 1 15 -1.</_>
        <_>
          31 30 1 5 3.</_></rects>
      <tilted>0</tilted></_>
    <_>
      <rects>
        <_>
          32 12 16 16 -1.</_>
        <_>
          32 12 8 8 2.</_>
        <_>
          40 20 8 8 2.</_></rects>
      <tilted>0</tilted></_>
    <_>
      <rects>
        <_>
          32 16 18 12 -1.</_>
        <_>
          32 16 9 6 2.</_>
        <_>
          41 22 9 6 2.</_></rects>
      <tilted>0</tilted></_>
    <_>
      <rects>
        <_>
          32 23 16 3 -1.</_>
        <_>
          40 23 8 3 2.</_></rects>
      <tilted>0</tilted></_>
    <_>
      <rects>
        <_>
          33 14 3 6 -1.</_>
        <_>
          33 16 3 2 3.</_></rects>
      <tilted>0</tilted></_>
    <_>
      <rects>
        <_>
          33 17 16 10 -1.</_>
        <_>
          33 17 8 5 2.</_>
        <_>
          41 22 8 5 2.</_></rects>
      <tilted>0</tilted></_>
    <_>
      <rects>
        <_>
          33 18 14 14 -1.</_>
        <_>
          40 18 7 14 2.</_></rects>
      <tilted>0</tilted></_>
    <_>
      <rects>
        <_>
          33 23 4 6 -1.</_>
        <_>
          33 25 4 2 3.</_></rects>
      <tilted>0</tilted></_>
    <_>
      <rects>
        <_>
          33 37 10 3 -1.</_>
        <_>
          33 38 10 1 3.</_></rects>
      <tilted>0</tilted></_>
    <_>
      <rects>
        <_>
          34 14 16 14 -1.</_>
        <_>
          34 14 8 7 2.</_>
        <_>
          42 21 8 7 2.</_></rects>
      <tilted>0</tilted></_>
    <_>
      <rects>
        <_>
          35 11 3 28 -1.</_>
        <_>
          35 25 3 14 2.</_></rects>
      <tilted>0</tilted></_>
    <_>
      <rects>
        <_>
          35 25 8 12 -1.</_>
        <_>
          35 25 4 6 2.</_>
        <_>
          39 31 4 6 2.</_></rects>
      <tilted>0</tilted></_>
    <_>
      <rects>
        <_>
          36 13 12 14 -1.</_>
        <_>
          36 13 6 7 2.</_>
        <_>
          42 20 6 7 2.</_></rects>
      <tilted>0</tilted></_>
    <_>
      <rects>
        <_>
          37 21 12 4 -1.</_>
        <_>
          43 21 6 4 2.</_></rects>
      <tilted>0</tilted></_>
    <_>
      <rects>
        <_>
          38 0 12 40 -1.</_>
        <_>
          38 0 6 20 2.</_>
        <_>
          44 20 6 20 2.</_></rects>
      <tilted>0</tilted></_>
    <_>
      <rects>
        <_>
          38 35 12 4 -1.</_>
        <_>
          44 35 6 4 2.</_></rects>
      <tilted>0</tilted></_>
    <_>
      <rects>
        <_>
          40 4 7 36 -1.</_>
        <_>
          40 16 7 12 3.</_></rects>
      <tilted>0</tilted></_>
    <_>
      <rects>
        <_>
          41 32 1 2 -1.</_>
        <_>
          41 33 1 1 2.</_></rects>
      <tilted>0</tilted></_>
    <_>
      <rects>
        <_>
          42 29 8 10 -1.</_>
        <_>
          42 29 4 5 2.</_>
        <_>
          46 34 4 5 2.</_></rects>
      <tilted>0</tilted></_>
    <_>
      <rects>
        <_>
          42 32 2 1 -1.</_>
        <_>
          43 32 1 1 2.</_></rects>
      <tilted>0</tilted></_>
    <_>
      <rects>
        <_>
          43 22 4 18 -1.</_>
        <_>
          43 31 4 9 2.</_></rects>
      <tilted>0</tilted></_>
    <_>
      <rects>
        <_>
          43 25 2 12 -1.</_>
        <_>
          43 31 2 6 2.</_></rects>
      <tilted>0</tilted></_>
    <_>
      <rects>
        <_>
          44 16 4 5 -1.</_>
        <_>
          46 16 2 5 2.</_></rects>
      <tilted>0</tilted></_>
    <_>
      <rects>
        <_>
          44 18 6 3 -1.</_>
        <_>
          47 18 3 3 2.</_></rects>
      <tilted>0</tilted></_>
    <_>
      <rects>
        <_>
          44 20 6 1 -1.</_>
        <_>
          46 20 2 1 3.</_></rects>
      <tilted>0</tilted></_>
    <_>
      <rects>
        <_>
          44 39 6 1 -1.</_>
        <_>
          47 39 3 1 2.</_></rects>
      <tilted>0</tilted></_>
    <_>
      <rects>
        <_>
          45 7 3 33 -1.</_>
        <_>
          45 18 3 11 3.</_></rects>
      <tilted>0</tilted></_>
    <_>
      <rects>
        <_>
          46 10 3 30 -1.</_>
        <_>
          46 20 3 10 3.</_></rects>
      <tilted>0</tilted></_>
    <_>
      <rects>
        <_>
          46 17 4 7 -1.</_>
        <_>
          48 17 2 7 2.</_></rects>
      <tilted>0</tilted></_>
    <_>
      <rects>
        <_>
          46 39 4 1 -1.</_>
        <_>
          48 39 2 1 2.</_></rects>
      <tilted>0</tilted></_>
    <_>
      <rects>
        <_>
          47 20 3 10 -1.</_>
        <_>
          48 20 1 10 3.</_></rects>
      <tilted>0</tilted></_>
    <_>
      <rects>
        <_>
          47 31 3 8 -1.</_>
        <_>
          48 31 1 8 3.</_></rects>
      <tilted>0</tilted></_>
    <_>
      <rects>
        <_>
          47 33 3 7 -1.</_>
        <_>
          48 33 1 7 3.</_></rects>
      <tilted>0</tilted></_>
    <_>
      <rects>
        <_>
          48 18 2 22 -1.</_>
        <_>
          48 18 1 11 2.</_>
        <_>
          49 29 1 11 2.</_></rects>
      <tilted>0</tilted></_>
    <_>
      <rects>
        <_>
          48 20 2 5 -1.</_>
        <_>
          49 20 1 5 2.</_></rects>
      <tilted>0</tilted></_>
    <_>
      <rects>
        <_>
          48 20 2 20 -1.</_>
        <_>
          48 20 1 10 2.</_>
        <_>
          49 30 1 10 2.</_></rects>
      <tilted>0</tilted></_>
    <_>
      <rects>
        <_>
          48 35 2 5 -1.</_>
        <_>
          49 35 1 5 2.</_></rects>
      <tilted>0</tilted></_>
    <_>
      <rects>
        <_>
          48 36 2 4 -1.</_>
        <_>
          49 36 1 4 2.</_></rects>
      <tilted>0</tilted></_></features></cascade>
</opencv_storage>
