<?xml version="1.0"?>
<opencv_storage>
<cascade>
  <stageType>BOOST</stageType>
  <featureType>HAAR</featureType>
  <height>40</height>
  <width>50</width>
  <stageParams>
    <boostType>GAB</boostType>
    <minHitRate>9.9500000476837158e-01</minHitRate>
    <maxFalseAlarm>5.0000000000000000e-01</maxFalseAlarm>
    <weightTrimRate>9.4999999999999996e-01</weightTrimRate>
    <maxDepth>1</maxDepth>
    <maxWeakCount>100</maxWeakCount></stageParams>
  <featureParams>
    <maxCatCount>0</maxCatCount>
    <featSize>1</featSize>
    <mode>BASIC</mode></featureParams>
  <stageNum>20</stageNum>
  <stages>
    <!-- stage 0 -->
    <_>
      <maxWeakCount>3</maxWeakCount>
      <stageThreshold>-1.0054652690887451e+00</stageThreshold>
      <weakClassifiers>
        <_>
          <internalNodes>
            0 -1 37 -2.2288087755441666e-02</internalNodes>
          <leafValues>
            7.1084338426589966e-01 -8.2031250000000000e-01</leafValues></_>
        <_>
          <internalNodes>
            0 -1 29 1.3903439976274967e-02</internalNodes>
          <leafValues>
            -8.6099487543106079e-01 5.3199625015258789e-01</leafValues></_>
        <_>
          <internalNodes>
            0 -1 34 -3.7176839541643858e-03</internalNodes>
          <leafValues>
            6.7584210634231567e-01 -6.7011445760726929e-01</leafValues></_></weakClassifiers></_>
    <!-- stage 1 -->
    <_>
      <maxWeakCount>3</maxWeakCount>
      <stageThreshold>-1.0070049762725830e+00</stageThreshold>
      <weakClassifiers>
        <_>
          <internalNodes>
            0 -1 25 1.5498658642172813e-02</internalNodes>
          <leafValues>
            -7.3684209585189819e-01 6.1643832921981812e-01</leafValues></_>
        <_>
          <internalNodes>
            0 -1 24 -3.6650872789323330e-03</internalNodes>
          <leafValues>
            5.1401144266128540e-01 -6.6331958770751953e-01</leafValues></_>
        <_>
          <internalNodes>
            0 -1 67 -3.8956566713750362e-03</internalNodes>
          <leafValues>
            3.9315667748451233e-01 -7.9964405298233032e-01</leafValues></_></weakClassifiers></_>
    <!-- stage 2 -->
    <_>
      <maxWeakCount>3</maxWeakCount>
      <stageThreshold>-1.1934043169021606e+00</stageThreshold>
      <weakClassifiers>
        <_>
          <internalNodes>
            0 -1 13 -1.9967198371887207e-02</internalNodes>
          <leafValues>
            1.9148936867713928e-01 -8.9898991584777832e-01</leafValues></_>
        <_>
          <internalNodes>
            0 -1 48 -2.4045068770647049e-02</internalNodes>
          <leafValues>
            8.0896639823913574e-01 -5.8682233095169067e-01</leafValues></_>
        <_>
          <internalNodes>
            0 -1 86 -7.2153527289628983e-03</internalNodes>
          <leafValues>
            5.2673137187957764e-01 -7.9807138442993164e-01</leafValues></_></weakClassifiers></_>
    <!-- stage 3 -->
    <_>
      <maxWeakCount>5</maxWeakCount>
      <stageThreshold>-8.8752144575119019e-01</stageThreshold>
      <weakClassifiers>
        <_>
          <internalNodes>
            0 -1 44 -2.8707381337881088e-02</internalNodes>
          <leafValues>
            6.9491523504257202e-01 -6.8571430444717407e-01</leafValues></_>
        <_>
          <internalNodes>
            0 -1 76 2.6581060141324997e-02</internalNodes>
          <leafValues>
            -4.9427196383476257e-01 6.7683047056198120e-01</leafValues></_>
        <_>
          <internalNodes>
            0 -1 28 -1.6192056238651276e-02</internalNodes>
          <leafValues>
            6.3094925880432129e-01 -4.9225658178329468e-01</leafValues></_>
        <_>
          <internalNodes>
            0 -1 75 -5.0771952373906970e-05</internalNodes>
          <leafValues>
            -9.7436666488647461e-01 3.9352238178253174e-01</leafValues></_>
        <_>
          <internalNodes>
            0 -1 77 -2.1455134265124798e-04</internalNodes>
          <leafValues>
            -9.1848170757293701e-01 3.9119902253150940e-01</leafValues></_></weakClassifiers></_>
    <!-- stage 4 -->
    <_>
      <maxWeakCount>4</maxWeakCount>
      <stageThreshold>-9.2609238624572754e-01</stageThreshold>
      <weakClassifiers>
        <_>
          <internalNodes>
            0 -1 16 1.0227359831333160e-01</internalNodes>
          <leafValues>
            -6.7474049329757690e-01 8.7999999523162842e-01</leafValues></_>
        <_>
          <internalNodes>
            0 -1 23 -4.4450562447309494e-02</internalNodes>
          <leafValues>
            4.5127081871032715e-01 -6.5205329656600952e-01</leafValues></_>
        <_>
          <internalNodes>
            0 -1 57 3.3720917999744415e-02</internalNodes>
          <leafValues>
            -3.5714656114578247e-01 9.6300011873245239e-01</leafValues></_>
        <_>
          <internalNodes>
            0 -1 46 8.8588513433933258e-02</internalNodes>
          <leafValues>
            -3.2440742850303650e-01 7.5784796476364136e-01</leafValues></_></weakClassifiers></_>
    <!-- stage 5 -->
    <_>
      <maxWeakCount>6</maxWeakCount>
      <stageThreshold>-1.3824229240417480e+00</stageThreshold>
      <weakClassifiers>
        <_>
          <internalNodes>
            0 -1 5 1.6609998419880867e-03</internalNodes>
          <leafValues>
            -6.3508772850036621e-01 5.5555558204650879e-01</leafValues></_>
        <_>
          <internalNodes>
            0 -1 40 -1.4738875441253185e-02</internalNodes>
          <leafValues>
            4.8710626363754272e-01 -5.3240144252777100e-01</leafValues></_>
        <_>
          <internalNodes>
            0 -1 72 -2.9332581907510757e-03</internalNodes>
          <leafValues>
            5.1708066463470459e-01 -5.3830629587173462e-01</leafValues></_>
        <_>
          <internalNodes>
            0 -1 78 -8.8023858552332968e-05</internalNodes>
          <leafValues>
            -8.3217948675155640e-01 3.5291045904159546e-01</leafValues></_>
        <_>
          <internalNodes>
            0 -1 55 -3.0331742018461227e-03</internalNodes>
          <leafValues>
            7.4569696187973022e-01 -4.0659734606742859e-01</leafValues></_>
        <_>
          <internalNodes>
            0 -1 84 -8.9089265093207359e-03</internalNodes>
          <leafValues>
            3.7705945968627930e-01 -8.8953566551208496e-01</leafValues></_></weakClassifiers></_>
    <!-- stage 6 -->
    <_>
      <maxWeakCount>4</maxWeakCount>
      <stageThreshold>-1.0503964424133301e+00</stageThreshold>
      <weakClassifiers>
        <_>
          <internalNodes>
            0 -1 11 9.0199074475094676e-04</internalNodes>
          <leafValues>
            -6.5734267234802246e-01 6.9811320304870605e-01</leafValues></_>
        <_>
          <internalNodes>
            0 -1 33 -7.8790006227791309e-04</internalNodes>
          <leafValues>
            5.6742674112319946e-01 -5.5945026874542236e-01</leafValues></_>
        <_>
          <internalNodes>
            0 -1 85 -1.5579320024698973e-03</internalNodes>
          <leafValues>
            6.6184055805206299e-01 -4.5199477672576904e-01</leafValues></_>
        <_>
          <internalNodes>
            0 -1 6 -4.2107971385121346e-03</internalNodes>
          <leafValues>
            6.1839127540588379e-01 -4.8377105593681335e-01</leafValues></_></weakClassifiers></_>
    <!-- stage 7 -->
    <_>
      <maxWeakCount>4</maxWeakCount>
      <stageThreshold>-8.0821460485458374e-01</stageThreshold>
      <weakClassifiers>
        <_>
          <internalNodes>
            0 -1 4 1.4490652829408646e-03</internalNodes>
          <leafValues>
            -5.9333330392837524e-01 6.9230771064758301e-01</leafValues></_>
        <_>
          <internalNodes>
            0 -1 39 -2.1646854293067008e-05</internalNodes>
          <leafValues>
            2.9337012767791748e-01 -7.0848166942596436e-01</leafValues></_>
        <_>
          <internalNodes>
            0 -1 80 -5.1702708005905151e-03</internalNodes>
          <leafValues>
            4.0215793251991272e-01 -5.8646714687347412e-01</leafValues></_>
        <_>
          <internalNodes>
            0 -1 61 3.8897991180419922e-04</internalNodes>
          <leafValues>
            2.3360438644886017e-01 -9.1040933132171631e-01</leafValues></_></weakClassifiers></_>
    <!-- stage 8 -->
    <_>
      <maxWeakCount>4</maxWeakCount>
      <stageThreshold>-7.4631530046463013e-01</stageThreshold>
      <weakClassifiers>
        <_>
          <internalNodes>
            0 -1 89 3.3711864944052650e-06</internalNodes>
          <leafValues>
            -8.7570619583129883e-01 2.4691358208656311e-02</leafValues></_>
        <_>
          <internalNodes>
            0 -1 54 -9.9528138525784016e-04</internalNodes>
          <leafValues>
            5.2383404970169067e-01 -5.4362839460372925e-01</leafValues></_>
        <_>
          <internalNodes>
            0 -1 51 -1.4562269207090139e-03</internalNodes>
          <leafValues>
            -9.5836430788040161e-01 2.9907301068305969e-01</leafValues></_>
        <_>
          <internalNodes>
            0 -1 79 -3.7350359889387619e-06</internalNodes>
          <leafValues>
            4.7971507906913757e-01 -5.2645128965377808e-01</leafValues></_></weakClassifiers></_>
    <!-- stage 9 -->
    <_>
      <maxWeakCount>4</maxWeakCount>
      <stageThreshold>-8.4973835945129395e-01</stageThreshold>
      <weakClassifiers>
        <_>
          <internalNodes>
            0 -1 21 -2.9839792847633362e-01</internalNodes>
          <leafValues>
            1.4018692076206207e-01 -7.1551722288131714e-01</leafValues></_>
        <_>
          <internalNodes>
            0 -1 7 -1.3249230105429888e-03</internalNodes>
          <leafValues>
            6.9475722312927246e-01 -3.6011087894439697e-01</leafValues></_>
        <_>
          <internalNodes>
            0 -1 53 3.2007144181989133e-04</internalNodes>
          <leafValues>
            2.9040360450744629e-01 -8.4556382894515991e-01</leafValues></_>
        <_>
          <internalNodes>
            0 -1 60 2.0284010097384453e-03</internalNodes>
          <leafValues>
            2.3298957943916321e-01 -8.3911865949630737e-01</leafValues></_></weakClassifiers></_>
    <!-- stage 10 -->
    <_>
      <maxWeakCount>5</maxWeakCount>
      <stageThreshold>-1.3907674551010132e+00</stageThreshold>
      <weakClassifiers>
        <_>
          <internalNodes>
            0 -1 14 -5.6256689131259918e-02</internalNodes>
          <leafValues>
            4.8275861144065857e-01 -6.3701069355010986e-01</leafValues></_>
        <_>
          <internalNodes>
            0 -1 90 2.1567090880125761e-03</internalNodes>
          <leafValues>
            -3.6727708578109741e-01 7.6246565580368042e-01</leafValues></_>
        <_>
          <internalNodes>
            0 -1 92 -5.6315166875720024e-04</internalNodes>
          <leafValues>
            7.1005713939666748e-01 -3.2360625267028809e-01</leafValues></_>
        <_>
          <internalNodes>
            0 -1 69 -6.4275227487087250e-03</internalNodes>
          <leafValues>
            4.6828052401542664e-01 -6.0626274347305298e-01</leafValues></_>
        <_>
          <internalNodes>
            0 -1 8 -4.6356618986465037e-04</internalNodes>
          <leafValues>
            4.4302579760551453e-01 -5.8635342121124268e-01</leafValues></_></weakClassifiers></_>
    <!-- stage 11 -->
    <_>
      <maxWeakCount>6</maxWeakCount>
      <stageThreshold>-1.0024646520614624e+00</stageThreshold>
      <weakClassifiers>
        <_>
          <internalNodes>
            0 -1 19 -2.8720698319375515e-03</internalNodes>
          <leafValues>
            8.7878787517547607e-01 -5.8823531866073608e-01</leafValues></_>
        <_>
          <internalNodes>
            0 -1 42 -6.0113948165962938e-06</internalNodes>
          <leafValues>
            2.5740084052085876e-01 -6.9882363080978394e-01</leafValues></_>
        <_>
          <internalNodes>
            0 -1 68 -2.7299276553094387e-04</internalNodes>
          <leafValues>
            -8.3514112234115601e-01 2.7543762326240540e-01</leafValues></_>
        <_>
          <internalNodes>
            0 -1 45 -2.3720897734165192e-03</internalNodes>
          <leafValues>
            6.5133672952651978e-01 -3.7074637413024902e-01</leafValues></_>
        <_>
          <internalNodes>
            0 -1 59 -4.9099064199253917e-04</internalNodes>
          <leafValues>
            -8.8453519344329834e-01 2.8187111020088196e-01</leafValues></_>
        <_>
          <internalNodes>
            0 -1 93 3.7559757402050309e-06</internalNodes>
          <leafValues>
            -7.2664374113082886e-01 3.0821380019187927e-01</leafValues></_></weakClassifiers></_>
    <!-- stage 12 -->
    <_>
      <maxWeakCount>6</maxWeakCount>
      <stageThreshold>-1.4739381074905396e+00</stageThreshold>
      <weakClassifiers>
        <_>
          <internalNodes>
            0 -1 0 6.3868723809719086e-02</internalNodes>
          <leafValues>
            -5.9595960378646851e-01 6.1904764175415039e-01</leafValues></_>
        <_>
          <internalNodes>
            0 -1 70 6.0764825320802629e-05</internalNodes>
          <leafValues>
            2.5608429312705994e-01 -7.0394504070281982e-01</leafValues></_>
        <_>
          <internalNodes>
            0 -1 58 -1.5550854732282460e-04</internalNodes>
          <leafValues>
            -7.7780640125274658e-01 2.4615116417407990e-01</leafValues></_>
        <_>
          <internalNodes>
            0 -1 27 -2.8984094387851655e-04</internalNodes>
          <leafValues>
            6.0341715812683105e-01 -4.1189628839492798e-01</leafValues></_>
        <_>
          <internalNodes>
            0 -1 81 -1.2186253443360329e-03</internalNodes>
          <leafValues>
            3.5100349783897400e-01 -6.6239631175994873e-01</leafValues></_>
        <_>
          <internalNodes>
            0 -1 2 -3.3088002819567919e-03</internalNodes>
          <leafValues>
            7.3213231563568115e-01 -3.5929182171821594e-01</leafValues></_></weakClassifiers></_>
    <!-- stage 13 -->
    <_>
      <maxWeakCount>5</maxWeakCount>
      <stageThreshold>-8.7181478738784790e-01</stageThreshold>
      <weakClassifiers>
        <_>
          <internalNodes>
            0 -1 82 -1.0396178811788559e-02</internalNodes>
          <leafValues>
            3.7500000000000000e-01 -6.3636362552642822e-01</leafValues></_>
        <_>
          <internalNodes>
            0 -1 62 3.7371800863184035e-04</internalNodes>
          <leafValues>
            1.7605046927928925e-01 -8.6049813032150269e-01</leafValues></_>
        <_>
          <internalNodes>
            0 -1 35 7.7359308488667011e-04</internalNodes>
          <leafValues>
            -4.8836070299148560e-01 4.0856212377548218e-01</leafValues></_>
        <_>
          <internalNodes>
            0 -1 63 6.1874259263277054e-03</internalNodes>
          <leafValues>
            -2.2016310691833496e-01 8.9597290754318237e-01</leafValues></_>
        <_>
          <internalNodes>
            0 -1 18 1.4852781314402819e-03</internalNodes>
          <leafValues>
            -5.9990066289901733e-01 3.8699442148208618e-01</leafValues></_></weakClassifiers></_>
    <!-- stage 14 -->
    <_>
      <maxWeakCount>4</maxWeakCount>
      <stageThreshold>-7.5767892599105835e-01</stageThreshold>
      <weakClassifiers>
        <_>
          <internalNodes>
            0 -1 83 -6.2086270190775394e-04</internalNodes>
          <leafValues>
            2.6760563254356384e-01 -6.3432836532592773e-01</leafValues></_>
        <_>
          <internalNodes>
            0 -1 91 -1.8339944072067738e-03</internalNodes>
          <leafValues>
            7.7215260267257690e-01 -3.0035495758056641e-01</leafValues></_>
        <_>
          <internalNodes>
            0 -1 36 -4.6399707207456231e-04</internalNodes>
          <leafValues>
            -9.5316463708877563e-01 2.3087312281131744e-01</leafValues></_>
        <_>
          <internalNodes>
            0 -1 64 3.3458458347013220e-05</internalNodes>
          <leafValues>
            2.2823505103588104e-01 -8.4782356023788452e-01</leafValues></_></weakClassifiers></_>
    <!-- stage 15 -->
    <_>
      <maxWeakCount>5</maxWeakCount>
      <stageThreshold>-8.6584639549255371e-01</stageThreshold>
      <weakClassifiers>
        <_>
          <internalNodes>
            0 -1 66 -3.1177161727100611e-03</internalNodes>
          <leafValues>
            8.5714286565780640e-01 -5.6270098686218262e-01</leafValues></_>
        <_>
          <internalNodes>
            0 -1 17 3.2456979155540466e-02</internalNodes>
          <leafValues>
            -4.1331654787063599e-01 5.3898388147354126e-01</leafValues></_>
        <_>
          <internalNodes>
            0 -1 64 -2.9431674192892388e-05</internalNodes>
          <leafValues>
            -7.0057052373886108e-01 3.7841564416885376e-01</leafValues></_>
        <_>
          <internalNodes>
            0 -1 56 -3.3737756893970072e-04</internalNodes>
          <leafValues>
            3.6259168386459351e-01 -6.1724334955215454e-01</leafValues></_>
        <_>
          <internalNodes>
            0 -1 65 -3.5865996323991567e-06</internalNodes>
          <leafValues>
            4.7568455338478088e-01 -4.4789257645606995e-01</leafValues></_></weakClassifiers></_>
    <!-- stage 16 -->
    <_>
      <maxWeakCount>5</maxWeakCount>
      <stageThreshold>-7.7189505100250244e-01</stageThreshold>
      <weakClassifiers>
        <_>
          <internalNodes>
            0 -1 10 8.9153638109564781e-03</internalNodes>
          <leafValues>
            -5.9861594438552856e-01 4.3999999761581421e-01</leafValues></_>
        <_>
          <internalNodes>
            0 -1 1 -1.9558058120310307e-03</internalNodes>
          <leafValues>
            6.9106906652450562e-01 -3.1484514474868774e-01</leafValues></_>
        <_>
          <internalNodes>
            0 -1 43 -7.8002276131883264e-04</internalNodes>
          <leafValues>
            -1. 2.2584038972854614e-01</leafValues></_>
        <_>
          <internalNodes>
            0 -1 12 -5.4757075849920511e-04</internalNodes>
          <leafValues>
            5.5269616842269897e-01 -4.0628710389137268e-01</leafValues></_>
        <_>
          <internalNodes>
            0 -1 15 -9.0174879878759384e-03</internalNodes>
          <leafValues>
            3.5829341411590576e-01 -6.3697052001953125e-01</leafValues></_></weakClassifiers></_>
    <!-- stage 17 -->
    <_>
      <maxWeakCount>6</maxWeakCount>
      <stageThreshold>-1.2958372831344604e+00</stageThreshold>
      <weakClassifiers>
        <_>
          <internalNodes>
            0 -1 26 -3.1324797309935093e-03</internalNodes>
          <leafValues>
            7.5757575035095215e-01 -5.7516342401504517e-01</leafValues></_>
        <_>
          <internalNodes>
            0 -1 3 2.2279866971075535e-03</internalNodes>
          <leafValues>
            -4.5369777083396912e-01 4.6626135706901550e-01</leafValues></_>
        <_>
          <internalNodes>
            0 -1 41 -4.4908672571182251e-03</internalNodes>
          <leafValues>
            5.0107640027999878e-01 -3.8992384076118469e-01</leafValues></_>
        <_>
          <internalNodes>
            0 -1 22 2.0547529857140034e-04</internalNodes>
          <leafValues>
            -4.6394231915473938e-01 4.0183341503143311e-01</leafValues></_>
        <_>
          <internalNodes>
            0 -1 52 -6.7121101892553270e-05</internalNodes>
          <leafValues>
            -9.1437757015228271e-01 2.1311037242412567e-01</leafValues></_>
        <_>
          <internalNodes>
            0 -1 88 -1.0382742766523734e-04</internalNodes>
          <leafValues>
            3.5674443840980530e-01 -5.4617947340011597e-01</leafValues></_></weakClassifiers></_>
    <!-- stage 18 -->
    <_>
      <maxWeakCount>6</maxWeakCount>
      <stageThreshold>-6.6336840391159058e-01</stageThreshold>
      <weakClassifiers>
        <_>
          <internalNodes>
            0 -1 71 -2.5387979112565517e-03</internalNodes>
          <leafValues>
            4.8837208747863770e-01 -5.8108109235763550e-01</leafValues></_>
        <_>
          <internalNodes>
            0 -1 38 6.5626865252852440e-03</internalNodes>
          <leafValues>
            -3.2759889960289001e-01 6.8918156623840332e-01</leafValues></_>
        <_>
          <internalNodes>
            0 -1 74 2.7179531753063202e-04</internalNodes>
          <leafValues>
            1.8179500102996826e-01 -9.4854462146759033e-01</leafValues></_>
        <_>
          <internalNodes>
            0 -1 87 -3.0941898003220558e-03</internalNodes>
          <leafValues>
            7.0968246459960938e-01 -2.6716956496238708e-01</leafValues></_>
        <_>
          <internalNodes>
            0 -1 30 3.1632755417376757e-04</internalNodes>
          <leafValues>
            -3.0369856953620911e-01 6.5513408184051514e-01</leafValues></_>
        <_>
          <internalNodes>
            0 -1 31 2.7708365814760327e-04</internalNodes>
          <leafValues>
            -3.2444795966148376e-01 6.8216359615325928e-01</leafValues></_></weakClassifiers></_>
    <!-- stage 19 -->
    <_>
      <maxWeakCount>7</maxWeakCount>
      <stageThreshold>-1.1631976366043091e+00</stageThreshold>
      <weakClassifiers>
        <_>
          <internalNodes>
            0 -1 73 -1.9857203005813062e-04</internalNodes>
          <leafValues>
            -8.7692308425903320e-01 -1.7703349888324738e-01</leafValues></_>
        <_>
          <internalNodes>
            0 -1 9 -3.5865996323991567e-06</internalNodes>
          <leafValues>
            2.3104460537433624e-01 -6.1808866262435913e-01</leafValues></_>
        <_>
          <internalNodes>
            0 -1 50 -2.4048122577369213e-03</internalNodes>
          <leafValues>
            -8.3615732192993164e-01 2.0974509418010712e-01</leafValues></_>
        <_>
          <internalNodes>
            0 -1 49 -1.1674816050799564e-05</internalNodes>
          <leafValues>
            3.9481025934219360e-01 -5.4118883609771729e-01</leafValues></_>
        <_>
          <internalNodes>
            0 -1 20 1.1922509875148535e-03</internalNodes>
          <leafValues>
            -3.5852402448654175e-01 6.0935419797897339e-01</leafValues></_>
        <_>
          <internalNodes>
            0 -1 47 1.9134115427732468e-02</internalNodes>
          <leafValues>
            -3.3996307849884033e-01 5.8398824930191040e-01</leafValues></_>
        <_>
          <internalNodes>
            0 -1 32 9.0151205658912659e-02</internalNodes>
          <leafValues>
            -3.4128564596176147e-01 6.6185534000396729e-01</leafValues></_></weakClassifiers></_></stages>
  <features>
    <_>
      <rects>
        <_>
          0 5 21 33 -1.</_>
        <_>
          7 5 7 33 3.</_></rects>
      <tilted>0</tilted></_>
    <_>
      <rects>
        <_>
          0 8 12 1 -1.</_>
        <_>
          4 8 4 1 3.</_></rects>
      <tilted>0</tilted></_>
    <_>
      <rects>
        <_>
          0 8 50 2 -1.</_>
        <_>
          0 9 50 1 2.</_></rects>
      <tilted>0</tilted></_>
    <_>
      <rects>
        <_>
          0 16 4 8 -1.</_>
        <_>
          2 16 2 8 2.</_></rects>
      <tilted>0</tilted></_>
    <_>
      <rects>
        <_>
          0 18 2 4 -1.</_>
        <_>
          1 18 1 4 2.</_></rects>
      <tilted>0</tilted></_>
    <_>
      <rects>
        <_>
          0 18 2 7 -1.</_>
        <_>
          1 18 1 7 2.</_></rects>
      <tilted>0</tilted></_>
    <_>
      <rects>
        <_>
          0 33 30 6 -1.</_>
        <_>
          0 33 15 3 2.</_>
        <_>
          15 36 15 3 2.</_></rects>
      <tilted>0</tilted></_>
    <_>
      <rects>
        <_>
          0 34 2 6 -1.</_>
        <_>
          1 34 1 6 2.</_></rects>
      <tilted>0</tilted></_>
    <_>
      <rects>
        <_>
          0 35 10 2 -1.</_>
        <_>
          5 35 5 2 2.</_></rects>
      <tilted>0</tilted></_>
    <_>
      <rects>
        <_>
          0 39 2 1 -1.</_>
        <_>
          1 39 1 1 2.</_></rects>
      <tilted>0</tilted></_>
    <_>
      <rects>
        <_>
          1 4 18 8 -1.</_>
        <_>
          1 4 9 4 2.</_>
        <_>
          10 8 9 4 2.</_></rects>
      <tilted>0</tilted></_>
    <_>
      <rects>
        <_>
          1 10 2 10 -1.</_>
        <_>
          1 10 1 5 2.</_>
        <_>
          2 15 1 5 2.</_></rects>
      <tilted>0</tilted></_>
    <_>
      <rects>
        <_>
          1 11 6 2 -1.</_>
        <_>
          3 11 2 2 3.</_></rects>
      <tilted>0</tilted></_>
    <_>
      <rects>
        <_>
          1 20 8 20 -1.</_>
        <_>
          1 30 8 10 2.</_></rects>
      <tilted>0</tilted></_>
    <_>
      <rects>
        <_>
          1 23 48 5 -1.</_>
        <_>
          17 23 16 5 3.</_></rects>
      <tilted>0</tilted></_>
    <_>
      <rects>
        <_>
          1 23 40 4 -1.</_>
        <_>
          21 23 20 4 2.</_></rects>
      <tilted>0</tilted></_>
    <_>
      <rects>
        <_>
          2 8 42 15 -1.</_>
        <_>
          2 13 42 5 3.</_></rects>
      <tilted>0</tilted></_>
    <_>
      <rects>
        <_>
          2 17 45 9 -1.</_>
        <_>
          2 20 45 3 3.</_></rects>
      <tilted>0</tilted></_>
    <_>
      <rects>
        <_>
          2 24 15 6 -1.</_>
        <_>
          7 24 5 6 3.</_></rects>
      <tilted>0</tilted></_>
    <_>
      <rects>
        <_>
          3 7 1 9 -1.</_>
        <_>
          3 10 1 3 3.</_></rects>
      <tilted>0</tilted></_>
    <_>
      <rects>
        <_>
          3 7 6 6 -1.</_>
        <_>
          5 7 2 6 3.</_></rects>
      <tilted>0</tilted></_>
    <_>
      <rects>
        <_>
          3 10 46 30 -1.</_>
        <_>
          3 25 46 15 2.</_></rects>
      <tilted>0</tilted></_>
    <_>
      <rects>
        <_>
          3 12 4 2 -1.</_>
        <_>
          3 13 4 1 2.</_></rects>
      <tilted>0</tilted></_>
    <_>
      <rects>
        <_>
          4 21 16 18 -1.</_>
        <_>
          4 30 16 9 2.</_></rects>
      <tilted>0</tilted></_>
    <_>
      <rects>
        <_>
          4 23 18 2 -1.</_>
        <_>
          13 23 9 2 2.</_></rects>
      <tilted>0</tilted></_>
    <_>
      <rects>
        <_>
          5 9 30 6 -1.</_>
        <_>
          5 12 30 3 2.</_></rects>
      <tilted>0</tilted></_>
    <_>
      <rects>
        <_>
          6 0 14 2 -1.</_>
        <_>
          6 0 7 1 2.</_>
        <_>
          13 1 7 1 2.</_></rects>
      <tilted>0</tilted></_>
    <_>
      <rects>
        <_>
          6 4 2 6 -1.</_>
        <_>
          6 4 1 3 2.</_>
        <_>
          7 7 1 3 2.</_></rects>
      <tilted>0</tilted></_>
    <_>
      <rects>
        <_>
          6 14 14 13 -1.</_>
        <_>
          13 14 7 13 2.</_></rects>
      <tilted>0</tilted></_>
    <_>
      <rects>
        <_>
          7 4 7 36 -1.</_>
        <_>
          7 16 7 12 3.</_></rects>
      <tilted>0</tilted></_>
    <_>
      <rects>
        <_>
          7 5 2 6 -1.</_>
        <_>
          7 5 1 3 2.</_>
        <_>
          8 8 1 3 2.</_></rects>
      <tilted>0</tilted></_>
    <_>
      <rects>
        <_>
          7 6 3 3 -1.</_>
        <_>
          8 6 1 3 3.</_></rects>
      <tilted>0</tilted></_>
    <_>
      <rects>
        <_>
          7 11 25 15 -1.</_>
        <_>
          7 16 25 5 3.</_></rects>
      <tilted>0</tilted></_>
    <_>
      <rects>
        <_>
          8 24 15 1 -1.</_>
        <_>
          13 24 5 1 3.</_></rects>
      <tilted>0</tilted></_>
    <_>
      <rects>
        <_>
          10 1 30 4 -1.</_>
        <_>
          20 1 10 4 3.</_></rects>
      <tilted>0</tilted></_>
    <_>
      <rects>
        <_>
          10 5 8 10 -1.</_>
        <_>
          10 5 4 5 2.</_>
        <_>
          14 10 4 5 2.</_></rects>
      <tilted>0</tilted></_>
    <_>
      <rects>
        <_>
          10 15 6 2 -1.</_>
        <_>
          12 15 2 2 3.</_></rects>
      <tilted>0</tilted></_>
    <_>
      <rects>
        <_>
          10 19 39 9 -1.</_>
        <_>
          23 19 13 9 3.</_></rects>
      <tilted>0</tilted></_>
    <_>
      <rects>
        <_>
          11 27 26 3 -1.</_>
        <_>
          11 28 26 1 3.</_></rects>
      <tilted>0</tilted></_>
    <_>
      <rects>
        <_>
          12 5 10 4 -1.</_>
        <_>
          12 7 10 2 2.</_></rects>
      <tilted>0</tilted></_>
    <_>
      <rects>
        <_>
          12 17 12 15 -1.</_>
        <_>
          12 22 12 5 3.</_></rects>
      <tilted>0</tilted></_>
    <_>
      <rects>
        <_>
          12 34 27 6 -1.</_>
        <_>
          12 36 27 2 3.</_></rects>
      <tilted>0</tilted></_>
    <_>
      <rects>
        <_>
          13 0 12 5 -1.</_>
        <_>
          19 0 6 5 2.</_></rects>
      <tilted>0</tilted></_>
    <_>
      <rects>
        <_>
          13 14 6 4 -1.</_>
        <_>
          15 14 2 4 3.</_></rects>
      <tilted>0</tilted></_>
    <_>
      <rects>
        <_>
          13 21 24 9 -1.</_>
        <_>
          13 24 24 3 3.</_></rects>
      <tilted>0</tilted></_>
    <_>
      <rects>
        <_>
          13 28 19 3 -1.</_>
        <_>
          13 29 19 1 3.</_></rects>
      <tilted>0</tilted></_>
    <_>
      <rects>
        <_>
          14 7 21 21 -1.</_>
        <_>
          14 14 21 7 3.</_></rects>
      <tilted>0</tilted></_>
    <_>
      <rects>
        <_>
          14 8 22 9 -1.</_>
        <_>
          14 11 22 3 3.</_></rects>
      <tilted>0</tilted></_>
    <_>
      <rects>
        <_>
          14 20 20 9 -1.</_>
        <_>
          14 23 20 3 3.</_></rects>
      <tilted>0</tilted></_>
    <_>
      <rects>
        <_>
          14 32 2 8 -1.</_>
        <_>
          14 32 1 4 2.</_>
        <_>
          15 36 1 4 2.</_></rects>
      <tilted>0</tilted></_>
    <_>
      <rects>
        <_>
          15 7 15 3 -1.</_>
        <_>
          20 7 5 3 3.</_></rects>
      <tilted>0</tilted></_>
    <_>
      <rects>
        <_>
          16 11 9 7 -1.</_>
        <_>
          19 11 3 7 3.</_></rects>
      <tilted>0</tilted></_>
    <_>
      <rects>
        <_>
          16 17 3 1 -1.</_>
        <_>
          17 17 1 1 3.</_></rects>
      <tilted>0</tilted></_>
    <_>
      <rects>
        <_>
          16 17 6 5 -1.</_>
        <_>
          18 17 2 5 3.</_></rects>
      <tilted>0</tilted></_>
    <_>
      <rects>
        <_>
          17 0 8 3 -1.</_>
        <_>
          17 1 8 1 3.</_></rects>
      <tilted>0</tilted></_>
    <_>
      <rects>
        <_>
          17 0 30 2 -1.</_>
        <_>
          17 1 30 1 2.</_></rects>
      <tilted>0</tilted></_>
    <_>
      <rects>
        <_>
          17 1 18 2 -1.</_>
        <_>
          23 1 6 2 3.</_></rects>
      <tilted>0</tilted></_>
    <_>
      <rects>
        <_>
          17 8 27 9 -1.</_>
        <_>
          17 11 27 3 3.</_></rects>
      <tilted>0</tilted></_>
    <_>
      <rects>
        <_>
          17 17 9 1 -1.</_>
        <_>
          20 17 3 1 3.</_></rects>
      <tilted>0</tilted></_>
    <_>
      <rects>
        <_>
          17 36 14 1 -1.</_>
        <_>
          24 36 7 1 2.</_></rects>
      <tilted>0</tilted></_>
    <_>
      <rects>
        <_>
          18 10 6 22 -1.</_>
        <_>
          20 10 2 22 3.</_></rects>
      <tilted>0</tilted></_>
    <_>
      <rects>
        <_>
          18 16 6 3 -1.</_>
        <_>
          20 16 2 3 3.</_></rects>
      <tilted>0</tilted></_>
    <_>
      <rects>
        <_>
          19 14 6 6 -1.</_>
        <_>
          21 14 2 6 3.</_></rects>
      <tilted>0</tilted></_>
    <_>
      <rects>
        <_>
          19 27 4 9 -1.</_>
        <_>
          19 30 4 3 3.</_></rects>
      <tilted>0</tilted></_>
    <_>
      <rects>
        <_>
          20 39 3 1 -1.</_>
        <_>
          21 39 1 1 3.</_></rects>
      <tilted>0</tilted></_>
    <_>
      <rects>
        <_>
          21 18 2 2 -1.</_>
        <_>
          22 18 1 2 2.</_></rects>
      <tilted>0</tilted></_>
    <_>
      <rects>
        <_>
          22 0 6 2 -1.</_>
        <_>
          22 1 6 1 2.</_></rects>
      <tilted>0</tilted></_>
    <_>
      <rects>
        <_>
          22 7 18 21 -1.</_>
        <_>
          28 7 6 21 3.</_></rects>
      <tilted>0</tilted></_>
    <_>
      <rects>
        <_>
          23 15 9 1 -1.</_>
        <_>
          26 15 3 1 3.</_></rects>
      <tilted>0</tilted></_>
    <_>
      <rects>
        <_>
          25 12 18 28 -1.</_>
        <_>
          31 12 6 28 3.</_></rects>
      <tilted>0</tilted></_>
    <_>
      <rects>
        <_>
          25 15 6 1 -1.</_>
        <_>
          27 15 2 1 3.</_></rects>
      <tilted>0</tilted></_>
    <_>
      <rects>
        <_>
          25 27 8 3 -1.</_>
        <_>
          25 28 8 1 3.</_></rects>
      <tilted>0</tilted></_>
    <_>
      <rects>
        <_>
          26 33 24 3 -1.</_>
        <_>
          34 33 8 3 3.</_></rects>
      <tilted>0</tilted></_>
    <_>
      <rects>
        <_>
          27 38 6 2 -1.</_>
        <_>
          29 38 2 2 3.</_></rects>
      <tilted>0</tilted></_>
    <_>
      <rects>
        <_>
          27 39 6 1 -1.</_>
        <_>
          29 39 2 1 3.</_></rects>
      <tilted>0</tilted></_>
    <_>
      <rects>
        <_>
          28 17 3 2 -1.</_>
        <_>
          29 17 1 2 3.</_></rects>
      <tilted>0</tilted></_>
    <_>
      <rects>
        <_>
          29 7 16 15 -1.</_>
        <_>
          29 12 16 5 3.</_></rects>
      <tilted>0</tilted></_>
    <_>
      <rects>
        <_>
          29 16 2 4 -1.</_>
        <_>
          30 16 1 4 2.</_></rects>
      <tilted>0</tilted></_>
    <_>
      <rects>
        <_>
          30 18 6 1 -1.</_>
        <_>
          32 18 2 1 3.</_></rects>
      <tilted>0</tilted></_>
    <_>
      <rects>
        <_>
          33 6 3 1 -1.</_>
        <_>
          34 6 1 1 3.</_></rects>
      <tilted>0</tilted></_>
    <_>
      <rects>
        <_>
          33 10 4 16 -1.</_>
        <_>
          33 18 4 8 2.</_></rects>
      <tilted>0</tilted></_>
    <_>
      <rects>
        <_>
          35 26 2 14 -1.</_>
        <_>
          35 33 2 7 2.</_></rects>
      <tilted>0</tilted></_>
    <_>
      <rects>
        <_>
          38 9 12 6 -1.</_>
        <_>
          44 9 6 6 2.</_></rects>
      <tilted>0</tilted></_>
    <_>
      <rects>
        <_>
          41 8 3 4 -1.</_>
        <_>
          42 8 1 4 3.</_></rects>
      <tilted>0</tilted></_>
    <_>
      <rects>
        <_>
          41 20 7 20 -1.</_>
        <_>
          41 30 7 10 2.</_></rects>
      <tilted>0</tilted></_>
    <_>
      <rects>
        <_>
          43 17 6 10 -1.</_>
        <_>
          43 17 3 5 2.</_>
        <_>
          46 22 3 5 2.</_></rects>
      <tilted>0</tilted></_>
    <_>
      <rects>
        <_>
          45 18 3 22 -1.</_>
        <_>
          45 29 3 11 2.</_></rects>
      <tilted>0</tilted></_>
    <_>
      <rects>
        <_>
          46 14 4 7 -1.</_>
        <_>
          48 14 2 7 2.</_></rects>
      <tilted>0</tilted></_>
    <_>
      <rects>
        <_>
          46 23 3 2 -1.</_>
        <_>
          46 24 3 1 2.</_></rects>
      <tilted>0</tilted></_>
    <_>
      <rects>
        <_>
          46 39 4 1 -1.</_>
        <_>
          48 39 2 1 2.</_></rects>
      <tilted>0</tilted></_>
    <_>
      <rects>
        <_>
          48 13 2 24 -1.</_>
        <_>
          49 13 1 24 2.</_></rects>
      <tilted>0</tilted></_>
    <_>
      <rects>
        <_>
          48 17 2 7 -1.</_>
        <_>
          49 17 1 7 2.</_></rects>
      <tilted>0</tilted></_>
    <_>
      <rects>
        <_>
          48 21 2 3 -1.</_>
        <_>
          49 21 1 3 2.</_></rects>
      <tilted>0</tilted></_>
    <_>
      <rects>
        <_>
          48 39 2 1 -1.</_>
        <_>
          49 39 1 1 2.</_></rects>
      <tilted>0</tilted></_></features></cascade>
</opencv_storage>
